tree
version=v4
num_class=1
num_tree_per_iteration=1
label_index=0
max_feature_idx=10
objective=regression
feature_names=user_genre_rating user_year_rating movie_avg_rating user_avg_rating genres year user_num_ratings movie_num_ratings popularity runtime original_language
feature_infos=[1:5] [1:5] [1.3999999999999999:4.586363636363636] [1:5] -1:490:321:405:360:572:344:409:209:134:509:455:101:468:55:514:744:636:86:593:167:719:541:156:135:373:810:77:771:72:674:286:921:575:331:501:440:94:559:81:462:813:688:325:604:351:569:889:535:859:333:527:894:474:397:141:601:23:703:757:819:585:806:759:520:363:78:765:214:281:441:675:661:901:131:164:377:58:516:187:768:180:678:794:847:52:37:157:588:741:16:955:540:937:367:435:808:902:155:341:378:119:285:909:598:117:556:194:88:631:815:445:87:122:288:51:368:573:176:158:324:192:382:21:716:391:589:517:30:348:170:418:65:862:831:417:653:693:357:437:91:116:384:618:724:903:416:650:353:49:740:762:476:592:801:8:128:624:481:336:726:892:867:489:388:595:778:212:851:38:900:283:530:40:568:84:389:188:804:630:805:0:411:791:290:161:355:584:662:25:369:679:174:929:339:342:239:586:80:322:610:842:193:680:210:304:913:563:656:552:502:681:166:349:648:668:750:372:783:472:574:465:430:252:605:566:2:529:866:523:727:860:521:144:431:942:852:875:292:731:394:660:918:346:550:919:398:723:953:222:412:796:763:449:947:19:781:845:447:614:392:31:895:197:685:748:538:542:548:877:930:439:751:41:772:607:145:265:526:905:513:587:628:916:1:237:338:383:459:600:433:829:951:438:453:498:524:893:825:175:358:583:849:199:428:504:803:561:943:74:108:544:855:961:448:776:906:189:300:799:130:296:421:844:657:203:303:403:329:519:625:60:827:769:234:6:229:874:941:393:464:560:638:670:797:264:404:406:423:497:204:591:793:612:841:896:257:402:103:226:868:136:213:436:475:730:152:233:253:512:817:846:36:50:159:420:809:854:371:375:555:543:571:620:687:7:422:686:705:933:191:282:609:708:734:735:9:17:246:279:784:689:289:299:599:641:807:138:629:715:755:787:821:858:967:48:466:655:200:256:374:429:463:646:4:142:315:473:782:44:340:379:577:635:713:964:111:343:619:632:956:247:312:381:537:761:857:129:215:232:359:597:608:622:766:785:899:938:169:271:711:839:140:767:814:923:940:62:562:642:69:85:172:207:220:365:306:469:564:581:712:160:181:201:432:549:742:959:20:66:238:557:617:640:812:939:965:105:224:287:413:460:508:633:832:879:133:162 -1:2004:2003:2002:2001:2000:1999:1995:1998:1993:1994:1992:1991:1997:1990:1996:1984:1989:2005:1987:1988:1981:1983:1985:1982:1975:1980:1973:1976:1986:1978:1968:1979:1964:1959:1954:1956:1972:1951:1952:1941:1969:1961:1974:1955:1965:1960:1963:1966:1946:1957:1962:1977:1953:1970:1949:1971:1942:1958:1930:1939:1936:1944:1931:1947:1935:1940:1938:1934:1967:1943:1925:1945:1950:1920:1932:1927:1933:1918:1948:1924:1929:1916:1928 [0.69314718055994529:8.129174996911793] [3.6888794541139363:12.175314424273138] [0.00099950033308353315:7.8829211502792749] [0:648] -1:8:12:18:9:17:19:5:2:36:13:0:29:26:33:25:4:35:10:32:24:34:16:22:3:15:14:1:23:28
tree_sizes=2700 2676 2684 2848 2681 2854 2818 2854 2841 2954 2859 3225 2879 2688 2830 3008 3094 2954 3421 3413 2984 3119 3399 2720 3346 3485 3424 2892 3304 3024 2865 3249 4517 2698 3212 3300 2997 3596 3035 3191 4293 3019 2898 3669 3171 3310 3025 3165 3309 3164 3551 2998 3545 3141 3149 4121 2998 3140 3811 4091 3885 2876 3194 4121 3337 3353 3762 3307 3601 3310 3479 3716 3531 3017 3698 3733 3822 3523 3756 3591 3949 3500 3944 3760 4039 3300 3427 3901 3943 3161 3367 3550 3499 3250 3848 4293 2751 3291 4148 3681 4175 3498 3951 4303 4503 4145 3909 4288 3289 3946 3750 3679 4549 4103 3961 3169 3841 3775 4552 2734 4332 3753 4093 4385 4391 4377 4052 3839 3974 3420 3337 3758 3167 4404 3285 2758 4781 3927 3932 4515 4494 4175 4473 3876 4517 4847 3979 4213 4164 3962 3319 4057

Tree=0
num_leaves=27
num_cat=1
split_feature=1 1 1 2 2 1 1 1 1 1 2 1 2 1 2 2 2 2 1 2 2 2 1 4 2 2
split_gain=349777 82082.1 72393.8 26841.4 15494.2 15405.5 13959.3 9541.48 7062.54 6904.89 5461.96 5136.31 4208.7 3206.32 2717.9 2707.1 2423.66 2076.51 1550.81 1482.81 1280.68 1228.41 1197.97 1032.4 955.344 837.536
threshold=3.5978723404255324 2.7158385093167707 4.3190909090909102 3.4824738479140254 3.5726701270925729 1.7512376237623763 3.059714795008913 4.6720430107526889 3.9241552839683682 3.2390476190476196 3.8744055645098849 2.2546296296296302 3.4508090200735899 4.0113636363636376 3.0912787905364492 3.1841451153491471 3.0778619928277298 3.9157261999822555 3.336879432624114 3.9098430360917145 3.640819852268693 3.2992413294372946 3.7523584905660381 0 3.9098430360917145 3.11863863447295
decision_type=2 2 2 2 2 2 2 2 2 2 2 2 2 2 2 2 2 2 2 2 2 2 2 9 2 2
left_child=1 5 4 9 8 -1 19 20 15 14 18 -7 25 17 -3 -2 -11 22 -8 -5 -4 -10 -6 -12 -14 -13
right_child=2 3 7 6 13 11 10 -9 21 16 23 12 24 -15 -16 -17 -18 -19 -20 -21 -22 -23 -24 -25 -26 -27
leaf_value=3.4816913070973476 3.5537540266034551 3.5290566477458634 3.5928142364275648 3.5469587241934191 3.5740095643420005 3.5114257474963506 3.5576679550902521 3.6149115097196773 3.5715588014400681 3.5409988834516231 3.5830401176259445 3.5120789166977455 3.5343116706114519 3.5945095745059077 3.5408413859672412 3.567018541036354 3.5532511175810457 3.5873973649924054 3.5654751046257012 3.5569263357204273 3.6017203468940284 3.5800550684384755 3.5817537628962204 3.5721143537466093 3.5487658959993036 3.5242083822423327
leaf_weight=12544 26575 36471 39152 78154 35461 30538 60642 74923 33035 28106 15441 12272 27961 30835 74081 69329 71318 62695 66723 24474 41591 59570 84119 36060 7178 16926
leaf_count=12544 26575 36471 39152 78154 35461 30538 60642 74923 33035 28106 15441 12272 27961 30835 74081 69329 71318 62695 66723 24474 41591 59570 84119 36060 7178 16926
internal_value=3.56525 3.54648 3.58537 3.55259 3.57744 3.51849 3.55972 3.60583 3.57006 3.54303 3.56568 3.52336 3.52902 3.58397 3.53695 3.56334 3.54979 3.58219 3.56176 3.54934 3.5974 3.57702 3.57946 3.5754 3.53726 3.51911
internal_weight=0 598889 557285 491470 401619 107419 281494 155666 188509 209976 178866 94875 64337 213110 110552 95904 99424 182275 127365 102628 80743 92605 119580 51501 35139 29198
internal_count=1156174 598889 557285 491470 401619 107419 281494 155666 188509 209976 178866 94875 64337 213110 110552 95904 99424 182275 127365 102628 80743 92605 119580 51501 35139 29198
cat_boundaries=0 28
cat_threshold=0 0 1073872896 0 0 0 131072 0 536870912 65537 4194304 0 0 16 2097280 0 0 32768 268566528 20971520 1074790400 0 512 0 0 1280 0 2048
is_linear=0
shrinkage=1


Tree=1
num_leaves=27
num_cat=0
split_feature=0 0 0 0 0 0 1 0 1 1 0 1 1 1 1 2 1 0 1 1 1 1 2 2 2 1
split_gain=645357 146207 134223 23869.7 15894.7 7667.17 7394.45 7171.63 5723 4782.59 3783.2 3268.25 2981.68 2668.31 2314.24 1873.53 1732.56 1528.91 1440.38 1414.95 1227.31 1181.2 1089.9 1019.41 1006.92 704.131
threshold=3.4309523809523812 2.3390804597701154 4.4180107526881729 1.5092592592592595 3.8024390243902442 2.7795138888888893 3.9692234848484853 4.7559523809523823 4.9925373134328366 4.6602564102564115 3.1570723684210531 3.4624765478424018 3.0060240963855427 3.9692234848484853 4.6602564102564115 3.3704251869535491 2.0059523809523814 4.169540229885059 2.0059523809523814 2.5030864197530867 2.0059523809523814 4.6381818181818195 3.3983167328394726 3.4085374582147661 3.4824738479140254 1.017241379310345
decision_type=2 2 2 2 2 2 2 2 2 2 2 2 2 2 2 2 2 2 2 2 2 2 2 2 2 2
left_child=1 3 4 -1 6 13 12 21 17 10 16 18 20 19 -8 -14 25 -6 -12 -3 -2 -4 -21 -20 -13 -7
right_child=2 5 7 -5 8 9 14 -9 -10 -11 11 24 15 -15 -16 -17 -18 -19 23 22 -22 -23 -24 -25 -26 -27
leaf_value=-0.087646444078050459 -0.04948625594873543 -0.050595042066831221 0.031148180429964607 -0.053809851608314092 0.014504525127384954 -0.087645839380509821 0.013005845290948975 0.049642249970614817 0.048941447954280896 0.041332481134927344 -0.056680599485431957 -0.0086262178613524722 -0.0096751073651383888 0.00091967554280164327 0.045504656381479505 0.0032532093608908419 -0.019456179719522935 0.023362363616716373 -0.024029697604831351 -0.041164275041780198 -0.013232672876390104 0.046052827138902519 -0.027563447179133796 -0.010995293187751528 0.0062623549090555179 -0.037910660009706193
leaf_weight=36889 1234 7153 37570 88463 306020 394 26062 162022 6401 1704 1095 9479 19498 2547 3057 49601 259925 26436 11436 12454 21164 8068 17993 21735 14121 3653
leaf_count=36889 1234 7153 37570 88463 306020 394 26062 162022 6401 1704 1095 9479 19498 2547 3057 49601 259925 26436 11436 12454 21164 8068 17993 21735 14121 3653
internal_value=0 -0.0308575 0.0225805 -0.0637675 0.0119251 -0.0195144 0.000909108 0.0461569 0.0158462 -0.0177071 -0.0180197 -0.00983675 -0.00402659 -0.0340795 0.0164181 -0.000394758 -0.0198135 0.0152089 -0.016806 -0.0364505 -0.0152306 0.0337833 -0.0331271 -0.0154893 0.000282039 -0.0427571
internal_weight=0 489041 667133 125352 459473 363689 120616 207660 338857 323542 321838 57866 91497 40147 29119 69099 263972 332456 34266 37600 22398 45638 30447 33171 23600 4047
internal_count=1156174 489041 667133 125352 459473 363689 120616 207660 338857 323542 321838 57866 91497 40147 29119 69099 263972 332456 34266 37600 22398 45638 30447 33171 23600 4047
is_linear=0
shrinkage=0.035336


Tree=2
num_leaves=27
num_cat=0
split_feature=0 0 0 0 0 0 0 1 1 1 0 1 1 1 1 2 1 0 1 1 2 1 1 1 2 2
split_gain=600554 136057 124905 22212.6 14794.2 7150.62 6674.22 6458.12 5526.75 4359.39 3186.93 2816.22 2764.48 2571.62 1998.17 1650.86 1491.27 1474.82 1424.04 1375.65 1307.56 1112.71 1100.72 1009.07 911.339 879.128
threshold=3.4309523809523812 2.3390804597701154 4.4180107526881729 1.5092592592592595 3.7791327913279136 2.8355855855855858 4.7817460317460325 3.9692234848484853 4.9925373134328366 4.4924242424242431 3.1570723684210531 3.9692234848484853 3.4624765478424018 3.0060240963855427 4.6602564102564115 3.5915774095212734 2.0059523809523814 4.1277173913043486 2.0059523809523814 2.5030864197530867 3.3983167328394726 4.8208556149732624 2.0059523809523814 4.9076704545454559 3.4085374582147661 3.4824738479140254
decision_type=2 2 2 2 2 2 2 2 2 2 2 2 2 2 2 2 2 2 2 2 2 2 2 2 2 2
left_child=1 3 4 -1 7 11 21 13 17 10 18 16 19 22 -9 -15 -3 -6 -7 -12 -18 -4 -2 -11 -21 -14
right_child=2 5 6 -5 8 9 -8 14 -10 23 12 -13 25 15 -16 -17 20 -19 -20 24 -22 -23 -24 -25 -26 -27
leaf_value=-0.084549379822470114 -0.047752267117551289 -0.057978206609641765 0.030482291673081748 -0.051908429049094963 0.013800512687368616 -0.040484951191573068 0.047892889616067524 0.012291690422289194 0.047215560769926591 0.0078041955860659777 -0.039572541838798228 0.0018876619351097267 -0.0087307317449044075 -0.0057390394443958357 0.043801777270564793 0.0055323369025425968 -0.040231512631680955 0.021972175396238487 -0.018744476769225041 -0.022330658207232963 -0.027074722743914179 0.046918672704508446 -0.012820635713166603 0.047472902521462773 -0.0096777515074859457 0.0053364143425844897
leaf_weight=36889 1192 3083 39829 88463 308127 3819 161923 24363 6586 2120 2883 2865 9339 36309 2802 29333 15946 30292 254195 10883 23107 5908 20469 1287 20500 13662
leaf_count=36889 1192 3083 39829 88463 308127 3819 161923 24363 6586 2120 2883 2865 9339 36309 2802 29333 15946 30292 254195 10883 23107 5908 20469 1287 20500 13662
internal_value=0 -0.0297671 0.0217826 -0.0615142 0.0115037 -0.0188249 0.044526 0.00049571 0.0151559 -0.0169629 -0.0173926 -0.0320105 -0.00985136 -0.0041861 0.0155423 -0.000702178 -0.0343155 0.014532 -0.0190663 -0.0162122 -0.0324471 0.0326057 -0.0147435 0.0227923 -0.0140658 -0.000374955
internal_weight=0 489041 667133 125352 459473 363689 207660 114468 345005 318688 315281 45001 57267 87303 27165 65642 42136 338419 258014 34266 39053 45737 21661 3407 31383 23001
internal_count=1156174 489041 667133 125352 459473 363689 207660 114468 345005 318688 315281 45001 57267 87303 27165 65642 42136 338419 258014 34266 39053 45737 21661 3407 31383 23001
is_linear=0
shrinkage=0.035336


Tree=3
num_leaves=27
num_cat=1
split_feature=0 0 0 0 0 0 1 0 1 1 0 1 1 1 1 2 1 1 0 1 1 2 1 4 2 2
split_gain=558862 126611 116233 20727.9 13797.5 6666.84 6531.26 6210.85 4937.34 4189.03 3051.64 2911.73 2309.64 2304.45 2264.87 1513.62 1384.59 1335.39 1323.5 1289.97 1077.39 1072.01 1036.03 980.593 888.218 817.857
threshold=3.4309523809523812 2.3390804597701154 4.4180107526881729 1.3405797101449277 3.8198051948051952 2.7795138888888893 3.7981481481481487 4.7817460317460325 4.9309523809523821 4.4924242424242431 3.101724137931035 3.3760245901639352 3.9692234848484853 4.6602564102564115 3.0060240963855427 3.3347731363076636 2.0059523809523814 2.0059523809523814 4.169540229885059 2.8016393442622953 2.0059523809523814 3.5370040319658367 4.6273148148148158 0 3.4085374582147661 3.5520089349190735
decision_type=2 2 2 2 2 2 2 2 2 2 2 2 2 2 2 2 2 2 2 2 2 2 2 9 2 2
left_child=1 3 4 -1 6 12 14 22 18 10 16 17 19 25 20 -16 -7 -12 -6 -3 -2 -13 -4 -11 -19 -8
right_child=2 5 7 -5 8 9 13 -9 -10 23 11 21 -14 -15 15 -17 -18 24 -20 -21 -22 -23 -24 -25 -26 -27
leaf_value=-0.082929340026405757 -0.046204749346725596 -0.043030479704023503 0.028973952776398769 -0.050587185028282369 0.013518128841514094 -0.039376942242289312 0.0042152417837199099 0.046200547060657182 0.045529382490328237 0.034480992306524808 -0.053414701130908002 -0.0086534167841331704 0.00082048082388602728 0.042381789927780363 -0.010649117106421751 0.0021325217249793275 -0.018268766376770416 -0.023471621262946194 0.02176042997437564 -0.029229305314639728 -0.012343823398785477 0.0051253574221510516 0.042865673817954579 -0.0065770031020757347 -0.011282634777612642 0.015177625162421731
leaf_weight=33926 1242 12853 37574 91426 305162 3941 14874 161923 6392 2417 1201 13558 2547 3078 15484 45746 253638 11391 26436 24747 21230 14688 8163 1038 21670 19829
leaf_count=33926 1242 12853 37574 91426 305162 3941 14874 161923 6392 2417 1201 13558 2547 3078 15484 45746 253638 11391 26436 24747 21230 14688 8163 1038 21670 19829
internal_value=0 -0.0287153 0.0210129 -0.0593406 0.0110972 -0.0181597 0.000883438 0.0429526 0.0147683 -0.0164743 -0.0168921 -0.00988796 -0.0317415 0.0130787 -0.00462112 -0.00109965 -0.0185918 -0.0168126 0.0141753 -0.0339473 -0.0142158 -0.0014882 0.0314536 0.0222249 -0.0154826 0.0104793
internal_weight=0 489041 667133 125352 459473 363689 121483 207660 337990 323542 320087 62508 40147 37781 83702 61230 257579 34262 331598 37600 22472 28246 45737 3455 33061 34703
internal_count=1156174 489041 667133 125352 459473 363689 121483 207660 337990 323542 320087 62508 40147 37781 83702 61230 257579 34262 331598 37600 22472 28246 45737 3455 33061 34703
cat_boundaries=0 29
cat_threshold=0 8388608 0 0 64 0 131072 0 0 0 16785410 33024 35651584 16777216 128 536871936 536870912 2415919104 268567040 0 0 0 32768 2097152 8 0 0 0 33554432
is_linear=0
shrinkage=0.035336


Tree=4
num_leaves=27
num_cat=0
split_feature=0 0 0 0 0 0 1 0 1 1 0 1 1 1 1 2 1 1 1 0 2 1 2 1 2 0
split_gain=520064 117823 108164 18294.2 12855.8 7521.69 6357.94 5779.96 4481.72 3918.23 3056.91 2723.73 2468.68 2256.15 2194.58 1467.84 1405.91 1395.2 1393.88 1205.89 1097.45 1032.8 1030.18 973.148 733.156 693.711
threshold=3.4309523809523812 2.2565789473684217 4.4180107526881729 1.3405797101449277 3.8345771144278613 2.7795138888888893 3.7981481481481487 4.7559523809523823 4.9925373134328366 4.6602564102564115 3.1570723684210531 3.6626016260162606 3.9692234848484853 4.4924242424242431 3.0060240963855427 3.3983167328394726 2.5030864197530867 2.0059523809523814 2.5030864197530867 4.169540229885059 3.4515885604064933 2.0059523809523814 3.4085374582147661 4.8208556149732624 3.3382636170843321 1.7791327913279134
decision_type=2 2 2 2 2 2 2 2 2 2 2 2 2 2 2 2 2 2 2 2 2 2 2 2 2 2
left_child=1 3 4 -1 6 12 14 23 19 10 17 18 16 24 21 -16 -3 -7 -12 -6 -18 -2 -20 -4 -8 -5
right_child=2 5 7 25 8 9 13 -9 -10 -11 11 -13 -14 -15 15 -17 20 -19 22 -21 -22 -23 -24 -25 -26 -27
leaf_value=-0.079998959510368409 -0.044725478468055212 -0.046442983799032722 0.028341199645737204 -0.062714098339854085 0.01312034470789333 -0.038376736245528016 -0.00081468051895817843 0.044563740993397868 0.043934884239056449 0.037546488780938747 -0.037127567717659779 0.0040049438809620953 0.0011076958553646312 0.033803097097145809 -0.009163188084303775 0.0026008387083921378 -0.036818313043571291 -0.017466950617893783 -0.019546598943154487 0.020991506908034627 -0.024052786158916369 -0.011910841442739097 -0.0075662388958763422 0.043744887630858646 0.012043703219973313 -0.048645706172877452
leaf_weight=33926 1268 8354 39757 4628 301719 4047 6974 162022 6261 1704 2883 15234 2747 5496 18962 43912 16338 259925 13652 26436 17340 21595 26097 5881 26850 82166
leaf_count=33926 1268 8354 39757 4628 301719 4047 6974 162022 6261 1704 2883 15234 2747 5496 18962 43912 16338 259925 13652 26436 17340 21595 26097 5881 26850 82166
internal_value=0 -0.0277006 0.0202704 -0.0579965 0.010705 -0.0177708 0.00103943 0.0414348 0.0143195 -0.0158922 -0.0161751 -0.00881947 -0.0313444 0.0128046 -0.00435618 -0.000946955 -0.0334655 -0.0177876 -0.0134023 0.0137545 -0.030246 -0.0137313 -0.0116812 0.0303264 0.00939232 -0.049396
internal_weight=0 489041 667133 120720 459473 368321 125057 207660 334416 323542 321838 57866 44779 39320 85737 62874 42032 263972 42632 328155 33678 22863 39749 45638 33824 86794
internal_count=1156174 489041 667133 120720 459473 368321 125057 207660 334416 323542 321838 57866 44779 39320 85737 62874 42032 263972 42632 328155 33678 22863 39749 45638 33824 86794
is_linear=0
shrinkage=0.035336


Tree=5
num_leaves=27
num_cat=1
split_feature=0 0 0 0 0 0 0 1 1 1 0 1 1 1 1 2 1 1 0 2 1 4 1 1 2 2
split_gain=483961 110522 99854.1 17969.8 11575.5 5882.99 5386.64 4966.36 4501.7 3689.5 2817.57 2296.44 2260.86 1921.11 1585.05 1352.13 1284.39 1281.65 1207.51 1156.17 1091.98 895.425 878.056 841.333 748.967 747.199
threshold=3.4629120879120885 2.3390804597701154 4.4180107526881729 1.5092592592592595 3.752049180327869 2.8355855855855858 4.7071078431372557 3.9692234848484853 4.9076704545454559 4.4924242424242431 3.1835016835016838 3.9692234848484853 3.4624765478424018 3.0060240963855427 4.6602564102564115 3.5915774095212734 2.0059523809523814 1.5051020408163267 4.1277173913043486 3.3983167328394726 2.0059523809523814 0 4.8208556149732624 2.0059523809523814 3.4085374582147661 3.3173771275736561
decision_type=2 2 2 2 2 2 2 2 2 2 2 2 2 2 2 2 2 2 2 2 2 9 2 2 2 2
left_child=1 3 4 -1 7 11 22 13 18 10 17 16 20 23 -9 -15 -3 -7 -6 -18 -12 -11 -4 -2 -22 -14
right_child=2 5 6 -5 8 9 -8 14 -10 21 12 -13 25 15 -16 -17 19 -19 -20 -21 24 -23 -24 -25 -26 -27
leaf_value=-0.075945391675899643 -0.042353913067866997 -0.052798715527804532 0.026973868337532566 -0.046586737168465994 0.012358163052298532 -0.071586468998295918 0.042889366030047074 0.010898236635068446 0.042353130693780827 0.032386763913583173 -0.049899041472004052 0.0018531980912286211 -0.011408035649511731 -0.0053869440584679113 0.039530920760179174 0.0050481935837695434 -0.036424442607800006 -0.016942991846256701 0.019751602173991804 -0.02405273837348559 -0.02054811690233161 -0.0071162491002468948 0.042234210679484456 -0.011372114834445269 -0.0091986560550402253 0.0036417515920061975
leaf_weight=36889 1159 3083 37862 88463 309927 537 164419 23473 6659 2478 1039 2865 5365 34592 2691 28098 15946 261232 30281 23107 11055 1007 5379 19669 21162 17737
leaf_count=36889 1159 3083 37862 88463 309927 537 164419 23473 6659 2478 1039 2865 5365 34592 2691 28098 15946 261232 30281 23107 11055 1007 5379 19669 21162 17737
internal_value=0 -0.0265839 0.0196557 -0.0552266 0.0104155 -0.0167904 0.0399707 0.000409528 0.0135795 -0.015116 -0.0155121 -0.0287571 -0.00834488 -0.00379895 0.0138436 -0.000709757 -0.0308386 -0.0170552 0.0130163 -0.0291046 -0.0142437 0.0210431 0.0288725 -0.0130967 -0.0130934 0.000146404
internal_weight=0 491965 664209 125352 456549 366613 207660 109682 346867 321612 318127 45001 56358 83518 26164 62690 42136 261769 340208 39053 33256 3485 43241 20828 32217 23102
internal_count=1156174 491965 664209 125352 456549 366613 207660 109682 346867 321612 318127 45001 56358 83518 26164 62690 42136 261769 340208 39053 33256 3485 43241 20828 32217 23102
cat_boundaries=0 29
cat_threshold=0 8388608 0 0 64 0 131072 0 0 0 16785410 33024 35651584 16777216 16512 536871936 536870912 2415919104 268567040 268435456 0 0 32768 2097152 8 0 0 0 33554432
is_linear=0
shrinkage=0.035336


Tree=6
num_leaves=27
num_cat=1
split_feature=0 0 0 0 0 1 1 0 0 0 1 1 1 1 1 2 1 1 0 2 1 1 1 1 4 0
split_gain=450998 117018 78312.5 17126.7 11390.2 5598.01 5413.77 4807.43 4231.11 3842.14 2735.4 1970.87 1917.04 1497.6 1436.12 1351.57 1234.56 1156.06 1073.19 994.315 948.615 905.001 831.373 826.759 1281.36 713.031
threshold=3.5345238095238098 2.4017543859649124 4.4913793103448283 1.3405797101449277 3.1835016835016838 4.9272486772486781 3.9555335968379448 4.8535714285714286 3.8908730158730163 2.7156334231805936 3.5469208211143699 4.8681159420289868 3.0060240963855427 2.0059523809523814 3.9555335968379448 3.3704251869535491 4.7459677419354849 2.0059523809523814 4.1835016835016843 3.3704251869535491 2.792385057471265 3.0060240963855427 4.5345238095238107 3.9692234848484853 0 2.0052083333333335
decision_type=2 2 2 2 2 2 2 2 2 2 2 2 2 2 2 2 2 2 2 2 2 2 2 2 9 2
left_child=1 3 5 -1 9 8 12 22 10 14 21 13 17 -11 20 -14 -8 -6 -10 -12 -3 -2 -4 -15 -25 -5
right_child=2 4 7 25 6 -7 16 -9 18 11 19 -13 15 23 -16 -17 -18 -19 -20 -21 -22 -23 -24 24 -26 -27
leaf_value=-0.074475020614871823 -0.012773692828743865 -0.039976382173800999 0.026091290151824213 -0.046176130857495487 -0.044580243215451364 0.041025922665166629 0.0088761009700417462 0.041525752388620017 0.012345786186318507 -0.037096298618050055 -0.0001391028756113021 0.042661782914577215 -0.012934391115078292 -0.016931722179304384 -0.001063353596619813 -0.0017865334812348476 0.040961514638783621 -0.014360901248706934 0.01964075332924476 0.013314183729179628 -0.026810717365174826 -0.00010520849782044639 0.037897930814369402 0.0038781336426583174 -0.01458188074534651 -0.035705392489112954
leaf_weight=34011 10278 10162 36184 83749 1682 8056 19640 160809 296226 4386 9131 702 19351 240993 2121 45538 1621 26279 27524 27565 20890 22359 9382 6083 20566 9002
leaf_count=34011 10278 10162 36184 83749 1682 8056 19640 160809 296226 4386 9131 702 19351 240993 2121 45538 1621 26279 27524 27565 20890 22359 9382 6083 20566 9002
internal_value=0 -0.0232694 0.020967 -0.0530255 -0.0142888 0.0118671 -0.00476121 0.0386548 0.0112694 -0.0178429 0.00334726 -0.0164617 -0.00844427 -0.0166143 -0.0291981 -0.00511113 0.0113229 -0.0161792 0.012966 0.00996647 -0.0311196 -0.00409498 0.0285225 -0.0162786 -0.0103719 -0.04516
internal_weight=0 546776 607514 126762 420014 401139 114111 206375 393083 305903 69333 272730 92850 272028 33173 64889 21261 27961 323750 36696 31052 32637 45566 267642 26649 92751
internal_count=1154290 546776 607514 126762 420014 401139 114111 206375 393083 305903 69333 272730 92850 272028 33173 64889 21261 27961 323750 36696 31052 32637 45566 267642 26649 92751
cat_boundaries=0 30
cat_threshold=0 0 0 0 0 0 0 0 0 0 285220866 256 2097152 0 128 1024 0 268435456 131584 0 0 0 32768 2097152 0 0 0 0 1048576 134217728
is_linear=0
shrinkage=0.035336


Tree=7
num_leaves=27
num_cat=1
split_feature=0 0 0 0 0 1 1 0 0 0 1 1 1 1 2 1 1 1 1 0 1 2 1 1 4 2
split_gain=419697 109218 72544.8 15985.8 10761.9 5181.62 5116.26 4473.66 3788.09 3585.87 2448.34 1815.23 1741.31 1577.74 1306.35 1240.61 1157.36 1084.31 1079.98 981.781 873.845 858.982 779.283 766.295 836.908 686.079
threshold=3.5477272727272733 2.4017543859649124 4.4913793103448283 1.5092592592592595 3.1835016835016838 4.8208556149732624 3.9555335968379448 4.8535714285714286 3.8908730158730163 2.7795138888888893 3.5729483282674779 3.0060240963855427 4.8681159420289868 2.8350340136054428 3.4824738479140254 1.5051020408163267 4.7459677419354849 3.9555335968379448 2.0059523809523814 4.1835016835016843 3.0060240963855427 3.3058365576146929 4.9660633484162906 2.8190909090909098 0 3.3208572301334791
decision_type=2 2 2 2 2 2 2 2 2 2 2 2 2 2 2 2 2 2 2 2 2 2 2 2 9 2
left_child=1 3 5 -1 9 8 11 22 10 13 20 18 15 -3 -13 -11 -8 25 -6 -10 -2 -12 -4 24 -17 -15
right_child=2 4 7 -5 6 -7 16 -9 19 12 21 14 -14 17 -16 23 -18 -19 -20 -21 -22 -23 -24 -25 -26 -27
leaf_value=-0.070716932172666794 -0.012228399384686157 -0.037418575822112214 0.0257677101889601 -0.04310320205453394 -0.043030759336208667 0.038933016137463548 0.0086380403939250085 0.04005839846865674 0.011902329393790856 -0.06816297073402551 -0.0012576080054060234 -0.010600175279946035 0.040912693299454177 -0.033194283048892784 -0.00055107180201413521 -0.027589985670908774 0.0395236242217408 8.1265510650148132e-05 -0.013869998709508188 0.018891370582370299 0.00023942834629235232 0.012654353104604667 0.03974552026764748 -0.015078861407493498 -0.01613137686630545 -0.020290110888647146
leaf_weight=36947 10070 12835 39872 89815 1687 8411 19871 160809 295975 566 6921 28463 675 7733 37349 13543 1640 2457 26482 27426 23165 27790 5694 233026 19678 15390
leaf_count=36947 10070 12835 39872 89815 1687 8411 19871 160809 295975 566 6921 28463 675 7733 37349 13543 1640 2457 26482 27426 23165 27790 5694 233026 19678 15390
internal_value=0 -0.0223936 0.0202749 -0.0511518 -0.0137426 0.0114914 -0.00455214 0.0372889 0.0109015 -0.0172124 0.00331675 -0.00811037 -0.0157625 -0.0273081 -0.00489731 -0.0159059 0.0109933 -0.0222346 -0.0156168 0.0124951 -0.00353809 0.00988028 0.0275147 -0.0157948 -0.0208161 -0.0246061
internal_weight=0 548157 606133 126762 421395 399758 115492 206375 391347 305903 67946 93981 267488 38415 65812 266813 21511 25580 28169 323401 33235 34711 45566 266247 33221 23123
internal_count=1154290 548157 606133 126762 421395 399758 115492 206375 391347 305903 67946 93981 267488 38415 65812 266813 21511 25580 28169 323401 33235 34711 45566 266247 33221 23123
cat_boundaries=0 30
cat_threshold=0 8388608 4194304 0 64 0 131072 0 0 0 16787490 256 35651584 0 1048576 536871936 256 2415919104 268567040 268435456 0 0 32768 2097408 0 0 0 0 0 134217728
is_linear=0
shrinkage=0.035336


Tree=8
num_leaves=27
num_cat=1
split_feature=0 0 0 0 0 1 1 0 0 0 1 1 1 1 2 1 1 1 1 2 0 2 1 2 1 4
split_gain=390561 101713 67508.5 13837.1 10577.4 5395.76 4829.59 4167.94 4165.79 3527.3 2286.26 2070.45 1620.3 1531.71 1450.44 1165.1 1121.47 1117.27 1047.96 972.576 931.437 871.768 843.088 783.56 704.751 876.931
threshold=3.5477272727272733 2.2565789473684217 4.4913793103448283 1.3405797101449277 3.0919661733615227 3.9692234848484853 4.9272486772486781 4.7071078431372557 2.7156334231805936 3.8908730158730163 3.5469208211143699 3.0060240963855427 3.9692234848484853 4.8681159420289868 3.5124915682702191 1.5051020408163267 2.0059523809523814 4.7801932367149762 2.0059523809523814 3.4515885604064933 4.245000000000001 3.5143700650879985 2.0059523809523814 3.6935965501967325 2.8903903903903907 0
decision_type=2 2 2 2 2 2 2 2 2 2 2 2 2 2 2 2 2 2 2 2 2 2 2 2 2 9
left_child=1 3 6 -1 8 11 9 -4 12 10 22 16 18 15 -13 -10 -6 -7 -3 -20 -11 -12 -2 -24 25 -17
right_child=2 4 7 -5 5 17 -8 -9 13 20 21 14 -14 -15 -16 24 -18 -19 19 -21 -22 -23 23 -25 -26 -27
leaf_value=-0.069344536275714658 -0.046501550789602837 -0.049440605032891098 0.026010420727183611 -0.042750177593481972 -0.04218178750829394 0.0086066630990866005 0.038199035598302004 0.038503166791304298 -0.06573452155956884 0.011539603338173842 0.0026929267221311218 -0.010405608574254524 0.00027007433663991102 0.039840980112894366 -0.0002911310785609373 -0.027057361904130765 -0.014133916816066688 0.038793610607733467 -0.034006768747438659 -0.022000713247377967 0.018900026539623169 0.013863593966095678 -0.0068824778156150439 0.0049630139169880676 -0.014735948562630859 -0.015993489060328114
leaf_weight=34011 564 3071 41827 86723 1893 20739 8038 164548 578 300628 14752 32867 2403 623 38373 13798 29870 1653 16503 17224 23122 21351 20820 10483 221893 25935
leaf_count=34011 564 3071 41827 86723 1893 20739 8038 164548 578 300628 14752 32867 2403 623 38373 13798 29870 1653 16503 17224 23122 21351 20820 10483 221893 25935
internal_value=0 -0.0216023 0.0195584 -0.050242 -0.0135124 -0.0048853 0.0110853 0.0359713 -0.0170942 0.0105289 0.00321068 -0.00830296 -0.02784 -0.0154914 -0.00495761 -0.0156229 -0.0158059 0.0108356 -0.0296758 -0.0278757 0.0120653 0.00929936 -0.00368717 -0.00291536 -0.0155121 -0.0198467
internal_weight=0 548157 606133 120734 427423 125395 399758 206375 302028 391720 67970 103003 39201 262827 71240 262204 31763 22392 36798 33727 323750 36103 31867 31303 261626 39733
internal_count=1154290 548157 606133 120734 427423 125395 399758 206375 302028 391720 67970 103003 39201 262827 71240 262204 31763 22392 36798 33727 323750 36103 31867 31303 261626 39733
cat_boundaries=0 30
cat_threshold=0 8388608 0 0 64 0 0 0 0 0 16787458 256 35651584 0 1048576 536871936 0 268435456 131072 268435456 0 0 32768 2097152 0 8192 0 0 0 134217728
is_linear=0
shrinkage=0.035336


Tree=9
num_leaves=27
num_cat=2
split_feature=0 0 0 0 0 0 0 1 1 1 4 1 1 1 1 4 1 1 0 1 2 0 2 1 1 1
split_gain=363607 82166 75364.4 12876.5 8772.82 5100.4 4348.13 3494.08 3448.53 2954.01 2932.23 1889.14 1687.25 1292.29 1228.58 1770.63 1212.8 1140 1085.68 1004.42 987.018 945.507 914.726 817.282 816.223 715.05
threshold=3.4309523809523812 2.2565789473684217 4.386752136752138 1.3405797101449277 3.7374686716791987 2.802777777777778 4.7817460317460325 4.9272486772486781 3.9417420814479645 3.9692234848484853 0 2.9682459677419359 2.0059523809523814 3.0060240963855427 3.0060240963855427 1 3.9692234848484853 4.4924242424242431 3.1835016835016838 4.4924242424242431 3.3704251869535491 4.1026315789473697 3.3983167328394726 1.5051020408163267 4.6381818181818195 1.017241379310345
decision_type=2 2 2 2 2 2 2 2 2 2 9 2 2 2 2 9 2 2 2 2 2 2 2 2 2 2
left_child=1 3 4 -1 8 11 24 14 13 12 19 23 25 -2 15 -6 -13 -10 -14 -11 -15 -16 -20 -3 -4 -7
right_child=2 5 6 -5 7 9 -8 -9 17 10 -12 16 18 20 21 -17 -18 -19 22 -21 -22 -23 -24 -25 -26 -27
leaf_value=-0.066894187225462851 -0.011623595706257775 -0.068839590514869195 0.023059541496414059 -0.041239558862399765 -0.010026046888735375 -0.072676335156374547 0.037235848496008167 0.036759035628553177 0.0079656135253619205 0.0039793180465677296 -0.01286624460554568 -0.022348117978434296 -0.015058292406783427 -0.0084862569449221954 0.011106291279103821 0.0092524974101023862 0.0016534667238503992 0.02828636741095714 -0.016177174748067426 0.029049292036656918 0.0017098590092728316 0.017914985321514979 -0.0055723688728118136 -0.032674554119496622 0.035139601700092039 -0.030087080856929477
leaf_weight=34011 19765 815 39985 86723 7946 554 162069 6726 19828 13489 19143 25003 233880 16525 287810 23579 2937 4173 15229 2342 41943 27943 30497 18476 8466 4433
leaf_count=34011 19765 815 39985 86723 7946 554 162069 6726 19828 13489 19143 25003 233880 16525 287810 23579 2937 4173 15229 2342 41943 27943 30497 18476 8466 4433
internal_value=0 -0.0231818 0.0169701 -0.0484666 0.00890014 -0.014859 0.0344591 0.0115333 -0.000217763 -0.0132571 -0.00356553 -0.0256978 -0.0144481 -0.00381247 0.0110448 0.0043928 -0.0198249 0.0114991 -0.0140846 0.00768388 -0.00117181 0.0117089 -0.00910447 -0.0342033 0.0251706 -0.0348214
internal_weight=0 487532 666758 120734 456238 366798 210520 354004 102234 319567 34974 47231 284593 78233 347278 31525 27940 24001 279606 15831 58468 315753 45726 19291 48451 4987
internal_count=1154290 487532 666758 120734 456238 366798 210520 354004 102234 319567 34974 47231 284593 78233 347278 31525 27940 24001 279606 15831 58468 315753 45726 19291 48451 4987
cat_boundaries=0 30 60
cat_threshold=0 8388608 16777216 0 64 0 131072 0 0 0 285220866 256 35651584 0 128 536871936 536871168 2415919104 268567040 4 0 256 32768 2097152 1024 0 0 0 0 134217728 0 0 16777216 0 0 0 0 0 0 0 285212674 256 2097152 0 0 1024 0 268435456 537001984 0 0 0 32768 2097152 0 0 0 0 0 134217728
is_linear=0
shrinkage=0.035336


Tree=10
num_leaves=27
num_cat=1
split_feature=0 0 0 0 0 1 1 0 0 0 1 1 1 1 2 2 1 1 1 1 1 0 1 1 1 4
split_gain=338404 87787.4 58700.5 12028.9 9026.75 4636.71 4219.44 3633.78 3619.76 3185.51 2123.35 1821.45 1390.79 1365.12 1254.09 1113.14 1053.87 994.581 983.835 890.302 822.869 948.783 687.182 675.535 656.844 538.008
threshold=3.5345238095238098 2.2565789473684217 4.4913793103448283 1.5092592592592595 3.0919661733615227 3.9692234848484853 4.8208556149732624 2.7013513513513518 4.8660714285714297 3.8908730158730163 3.336879432624114 3.0060240963855427 2.9682459677419359 4.8681159420289868 3.3704251869535491 3.5143700650879985 2.0059523809523814 2.0059523809523814 4.7801932367149762 3.9692234848484853 4.0113636363636376 4.0053763440860228 4.1690476190476202 2.0059523809523814 1.5051020408163267 0
decision_type=2 2 2 2 2 2 2 2 2 2 2 2 2 2 2 2 2 2 2 2 2 2 2 2 2 9
left_child=1 3 6 -1 7 11 9 12 22 10 23 17 24 16 -13 -12 25 -6 -7 -14 -11 -22 -4 -2 -3 -9
right_child=2 4 8 -5 5 18 -8 13 -10 20 15 14 19 -15 -16 -17 -18 -19 -20 -21 21 -23 -24 -25 -26 -27
leaf_value=-0.063550685166359464 -0.044518619353229254 -0.066850962254096299 0.021032536458708201 -0.039347146461400577 -0.03970012672292135 0.0079589246354136063 0.035020606246444853 -0.041240964324084563 0.03597219894478515 0.010387451736023288 0.00061155533370859294 -0.011765855860194428 -0.022827740496562918 0.037716085998131477 -0.0014991205882609352 0.011472096727725149 -0.014274861682882967 -0.013248236698102486 0.036441753411999608 0.00011618943053754986 0.01277264767229796 0.024032651399089781 0.029819402457581069 -0.0054829096287852628 -0.032503049582284539 -0.014441189367114709
leaf_weight=36947 569 729 26625 83787 1888 20509 8429 2759 160660 264813 20237 21322 20101 625 48993 28214 258825 29667 1635 2359 46918 11670 19090 20289 15160 1470
leaf_count=36947 569 729 26625 83787 1888 20509 8429 2759 160660 264813 20237 21322 20101 625 48993 28214 258825 29667 1635 2359 46918 11670 19090 20289 15160 1470
internal_value=0 -0.0201565 0.0181621 -0.046754 -0.0126192 -0.00459226 0.0102836 -0.0159151 0.0334757 0.00975261 0.00287789 -0.0077779 -0.0260786 -0.0144369 -0.00461247 0.00693601 -0.0145608 -0.0148313 0.0100625 -0.0204176 0.0112259 0.0150157 0.024702 -0.00654839 -0.0340799 -0.0320593
internal_weight=0 546776 607514 120734 426042 124014 401139 302028 206375 392710 69309 101870 38349 263679 70315 48451 263054 31555 22144 22460 323401 58588 45715 20858 15889 4229
internal_count=1154290 546776 607514 120734 426042 124014 401139 302028 206375 392710 69309 101870 38349 263679 70315 48451 263054 31555 22144 22460 323401 58588 45715 20858 15889 4229
cat_boundaries=0 30
cat_threshold=0 8388608 0 0 64 0 131072 0 0 0 16787490 256 35659776 0 1048704 536871936 536870912 2415919104 268567040 268435456 0 0 32768 2097408 8 0 0 0 33554432 134217728
is_linear=0
shrinkage=0.035336


Tree=11
num_leaves=27
num_cat=4
split_feature=0 0 0 0 0 1 0 1 1 1 4 1 0 0 1 1 4 1 1 0 0 1 4 1 5 1
split_gain=315053 69365.1 66947.3 11195.7 8478.32 4270.67 3771.46 3451.57 3029.14 2653.98 2470.8 2017.8 1655.42 1569.99 1537.4 1116.83 1614.28 1006.65 979.126 960.805 836.699 701.749 579.744 545.156 543.499 536.685
threshold=3.385856079404467 2.2565789473684217 4.386752136752138 1.3405797101449277 3.7374686716791987 2.8350340136054428 4.7071078431372557 3.6165158371040729 4.9660633484162906 3.9692234848484853 0 1.5051020408163267 2.9905660377358494 2.6023255813953496 4.4924242424242431 3.0060240963855427 1 4.4924242424242431 2.0059523809523814 3.0094339622641515 4.1026315789473697 4.6381818181818195 2 1.017241379310345 3 3.0060240963855427
decision_type=2 2 2 2 2 2 2 2 2 2 9 2 2 2 2 2 9 2 2 2 2 2 9 2 9 2
left_child=1 3 4 -1 7 11 21 18 15 13 17 -3 -13 -7 -9 16 -6 24 -2 -15 -17 -4 -14 -5 -11 -20
right_child=2 5 6 23 8 9 -8 14 -10 10 -12 12 22 19 -16 20 -18 -19 25 -21 -22 -23 -24 -25 -26 -27
leaf_value=-0.062284803954448714 -0.036891645453035402 -0.062920897438363779 0.021161894235235616 -0.069659270211816157 -0.0098286936917504047 -0.024190526585981764 0.034569013506011693 0.0048923829491555404 0.034238908704789538 -0.0046010534982480122 -0.011889013412145417 -0.030739137735696476 -0.023162438907098615 -0.013971782266355762 0.026724784304710363 0.010347089702750127 0.0085788476415619829 0.028103594548452522 -0.0096917615663730666 -0.0081299400892113211 0.016751954887851302 0.032856930811527754 -0.01408595002683887 -0.03811180745379452 0.0093053988440557293 -0.0027995954792523524
leaf_weight=34011 1226 1540 38274 690 7946 16621 164548 41353 6717 6358 19856 17899 14582 205313 4462 287818 23579 2336 20796 42424 27944 7698 22582 86033 7810 43874
leaf_count=34011 1226 1540 38274 690 7946 16621 164548 41353 6717 6358 19856 17899 14582 205313 4462 287818 23579 2336 20796 42424 27944 7698 22582 86033 7810 43874
internal_value=0 -0.0219459 0.0155323 -0.0451019 0.0080571 -0.0141218 0.032069 -0.00043013 0.0107354 -0.0124457 -0.00349446 -0.0230261 -0.0219101 -0.0136768 0.00701889 0.0102808 0.00393854 0.00660787 -0.00560925 -0.0129714 0.0109139 0.0231205 -0.0176575 -0.038363 0.00306766 -0.00501603
internal_weight=0 478055 676235 120734 465715 357321 210520 111711 354004 300718 36360 56603 55063 264358 45815 347287 31525 16504 65896 247737 315762 45972 37164 86723 14168 64670
internal_count=1154290 478055 676235 120734 465715 357321 210520 111711 354004 300718 36360 56603 55063 264358 45815 347287 31525 16504 65896 247737 315762 45972 37164 86723 14168 64670
cat_boundaries=0 30 60 90 153
cat_threshold=0 8388608 16777216 0 64 0 131072 0 0 0 285220866 256 35651584 0 128 536871936 536870912 2415919104 268567040 4 0 0 32768 2097152 67109888 0 0 0 0 134217728 0 0 16777216 0 0 0 0 0 0 0 285212674 256 2097152 0 0 1024 0 268435456 537001984 0 0 0 32768 2097152 0 0 0 0 0 134217728 0 8388608 20971520 0 64 0 0 0 33554432 0 16785442 256 35651584 0 1048576 536871936 0 2415919104 131584 268435456 0 0 32768 2097152 0 8192 0 0 0 134217728 0 0 0 0 0 0 0 0 0 0 0 0 0 0 0 0 0 0 0 0 0 0 0 0 0 0 0 0 0 0 0 0 0 0 0 0 0 0 0 0 0 0 0 0 0 0 0 0 0 0 0 0 0 0 0 0 0 0 0 0 0 20 4084993
is_linear=0
shrinkage=0.035336


Tree=12
num_leaves=27
num_cat=1
split_feature=0 0 0 0 0 1 1 0 0 0 1 1 1 2 1 2 1 1 1 0 2 1 2 4 2 2
split_gain=293097 76207.8 50974.7 11260.8 7293.53 3841.01 3703.99 3114.57 2834.18 2490.15 2237.93 1412.62 1277.39 1274.13 1086.8 1016.96 1003.64 932.56 739.565 864.861 691.618 635.707 609.203 694.484 598.801 575.931
threshold=3.5285947712418304 2.4017543859649124 4.4913793103448283 1.6711711711711714 3.1270161290322585 3.7090053763440864 4.8377192982456148 4.9110671936758896 3.9607692307692313 2.7013513513513518 3.7090053763440864 2.5030864197530867 4.8480769230769232 3.7489984061424244 4.4924242424242431 3.6929865703959979 2.0059523809523814 3.4803846153846156 4.0113636363636376 4.0053763440860228 3.1594293956662631 4.0571895424836608 3.4515885604064933 0 3.3295869483456921 3.5967420552682303
decision_type=2 2 2 2 2 2 2 2 2 2 2 2 2 2 2 2 2 2 2 2 2 2 2 9 2 2
left_child=1 3 6 -1 9 11 8 21 10 17 15 -6 16 20 25 -2 -11 -3 -10 -20 -13 -4 23 -18 -12 -7
right_child=2 4 7 -5 5 14 -8 -9 18 12 24 13 -14 -15 -16 -17 22 -19 19 -21 -22 -23 -24 -25 -26 -27
leaf_value=-0.058831358733760088 -0.0061309657385184412 -0.026827098746424392 0.019140056359643446 -0.035859878686690987 -0.026358935384666153 -0.0010688329542907727 0.032873800905021879 0.033487586963245393 0.0097074740443809978 -0.030478137249571442 0.0006301839613406053 -0.017407267751273558 0.035834487147934878 0.000273818505923121 0.024494391305312772 0.0051751585741641529 -0.019974930199042212 -0.012155107860926884 0.01192031330951574 0.022577622018021888 -0.007773983346877694 0.027460869828817524 -0.011685905436868182 -0.013545713794202672 0.012955876753487822 0.0087738075075754554
leaf_weight=38119 28834 25476 24346 88542 4965 14849 8337 160498 262062 4255 6245 11541 658 22225 3567 15154 27889 6870 46311 11967 48084 21687 148717 86482 23241 14841
leaf_count=38119 28834 25476 24346 88542 4965 14849 8337 160498 262062 4255 6245 11541 658 22225 3567 15154 27889 6870 46311 11967 48084 21687 148717 86482 23241 14841
internal_value=0 -0.0187456 0.0168943 -0.0427733 -0.0115067 -0.00414566 0.00956603 0.0311635 0.00907258 -0.0144495 0.00281317 -0.00805737 -0.0133316 -0.00694708 0.00606537 -0.00223582 -0.0134527 -0.0237112 0.0105082 0.0141089 -0.00963874 0.0230604 -0.0131773 -0.0151165 0.0103456 0.00385097
internal_weight=0 547080 608682 126661 420419 120072 402151 206531 393814 300347 73474 86815 268001 81850 33257 43988 267343 32346 320340 58278 59625 46033 263088 114371 29486 29690
internal_count=1155762 547080 608682 126661 420419 120072 402151 206531 393814 300347 73474 86815 268001 81850 33257 43988 267343 32346 320340 58278 59625 46033 263088 114371 29486 29690
cat_boundaries=0 28
cat_threshold=0 131104 4333568 32 64 0 131072 0 33554432 0 2 33554688 35651584 16777216 1048704 536871936 536903936 2415951872 131072 268435456 0 0 4227072 256 0 8192 0 33554432
is_linear=0
shrinkage=0.035336


Tree=13
num_leaves=27
num_cat=0
split_feature=0 0 0 0 0 1 1 0 0 1 1 1 0 1 1 2 0 2 1 3 1 0 1 2 2 2
split_gain=272763 62158 56327.8 9539.55 6438.8 4343.5 3538.48 3291.45 2965.81 2283.63 1993.84 1975.69 1558.94 1451.76 1376.8 1155.66 894.713 891.073 715.111 766.304 696.283 662.159 658.899 626.39 549.737 510.946
threshold=3.4459064327485387 2.2052631578947373 4.3651515151515161 1.3405797101449277 3.8345771144278613 2.8589511754068719 3.7467948717948723 4.9110671936758896 3.0094339622641515 4.9660633484162906 3.858803986710964 1.5051020408163267 2.9905660377358494 4.8480769230769232 4.4924242424242431 3.6929865703959979 2.5051020408163267 3.3208572301334791 3.0060240963855427 3.6137501342786558 4.0842198581560289 4.1026315789473697 2.5030864197530867 3.3382636170843321 3.4535900452389847 3.1960337088667075
decision_type=2 2 2 2 2 2 2 2 2 2 2 2 2 2 2 2 2 2 2 2 2 2 2 2 2 2
left_child=1 3 4 -1 6 11 15 20 13 18 17 -3 -13 16 23 22 24 -10 19 -6 -4 -20 -2 -8 -7 -24
right_child=2 5 7 -5 9 8 14 -9 10 -11 -12 12 -14 -15 -16 -17 -18 -19 21 -21 -22 -23 25 -25 -26 -27
leaf_value=-0.058015319221852837 -0.025837893617702425 -0.060160995273862018 0.018128456639456513 -0.03587214781562717 0.0075142648782547576 -0.027680470168297125 -0.0022174998613584732 0.032304269868974646 -0.014730662496951001 0.031803319302953457 0.0097919811325463593 -0.028728086292862689 -0.016481739883021471 0.037078896288683751 0.025394952510186829 0.0020422712364089593 -0.012415983289264515 -0.0041238829050381067 0.00989124445878466 -0.0067919558968830172 0.026420371203943336 0.015665092207899314 -0.012503098670152852 0.0089189363971182919 -0.014951146298262902 -0.0039308770375237256
leaf_weight=33994 2168 1604 27187 85147 22775 7840 7997 160498 13720 6059 10631 19130 40388 725 5561 29226 232183 35434 268984 5882 23657 27325 11319 29817 9225 37286
leaf_count=33994 2168 1604 27187 85147 22775 7840 7997 160498 13720 6059 10631 19130 40388 725 5561 29226 232183 35434 268984 5882 23657 27325 11319 29817 9225 37286
internal_value=0 -0.0199856 0.0147508 -0.0421903 0.00774107 -0.0128525 0.000851003 0.0298222 -0.0111538 0.010309 -0.00408351 -0.0214613 -0.0204181 -0.0128448 0.00897815 -0.00355542 -0.01299 -0.00708464 0.00990821 0.0045776 0.0219868 0.0104237 -0.00677768 0.00656361 -0.0207998 -0.00592731
internal_weight=0 490021 665741 119141 454399 370880 123374 211342 309758 331025 59785 61122 59518 249973 43375 79999 249248 49154 324966 28657 50844 296309 50773 37814 17065 48605
internal_count=1155762 490021 665741 119141 454399 370880 123374 211342 309758 331025 59785 61122 59518 249973 43375 79999 249248 49154 324966 28657 50844 296309 50773 37814 17065 48605
is_linear=0
shrinkage=0.035336


Tree=14
num_leaves=27
num_cat=1
split_feature=0 0 0 0 0 1 1 0 0 0 1 1 1 1 1 1 2 2 1 2 4 1 2 1 1 1
split_gain=254040 65966.4 44111.4 9090.34 6614.64 3570.63 3245.77 2787.09 2691.45 2653.75 1500.91 1500.89 1196.84 1162.84 1114.43 1076.91 983.945 941.918 881.416 831.892 758.252 664.59 660.202 621.304 597.672 547.669
threshold=3.5285947712418304 2.2565789473684217 4.4913793103448283 1.7791327913279134 3.0919661733615227 3.505555555555556 4.232051282051283 2.6715686274509807 4.9110671936758896 3.9607692307692313 4.9660633484162906 3.336879432624114 4.4924242424242431 2.5030864197530867 3.4803846153846156 4.8480769230769232 3.7489984061424244 3.5915774095212734 1.5051020408163267 3.5967420552682303 0 1.5051020408163267 3.1960337088667075 2.0059523809523814 4.9660633484162906 2.8589511754068719
decision_type=2 2 2 2 2 2 2 2 2 2 2 2 2 2 2 2 2 2 2 2 9 2 2 2 2 2
left_child=1 3 6 -1 7 13 9 14 24 11 20 23 19 -6 21 18 -15 -13 -9 -7 -8 -3 -23 -2 -4 -20
right_child=2 4 8 -5 5 12 10 15 -10 -11 -12 17 -14 16 -16 -17 -18 -19 25 -21 -22 22 -24 -25 -26 -27
leaf_value=-0.054665401499368771 -0.041901574381191097 -0.05919345565753506 0.019925868097001097 -0.033868860242627884 -0.024972103966645193 -0.002674812629798861 0.019101145319835786 -0.055669773417206483 0.031162766209473891 0.0091775967184164666 0.030956603578483601 0.00014306579599801029 0.023028920379239419 -0.010184988982096676 -0.010748701519436346 0.033390541928435817 -0.00075374306337438514 0.010249053197707386 -0.016424090808108662 0.0069968443338277505 0.010054724503099455 -0.034467591199205685 -0.022005150624952161 -0.0052067335756113249 0.031976931145498627 -0.011814221640270855
leaf_weight=38586 592 726 40137 82067 5193 23508 22686 591 160498 279430 8102 23855 3617 51238 7734 638 18912 22265 37523 21045 23812 6963 22371 21409 5896 226368
leaf_count=38586 592 726 40137 82067 5193 23508 22686 591 160498 279430 8102 23855 3617 51238 7734 638 18912 22265 37523 21045 23812 6963 22371 21409 5896 226368
internal_value=0 -0.0174521 0.0157284 -0.0405199 -0.0109252 -0.00403306 0.00891134 -0.0137355 0.0290023 0.00765304 0.0169207 0.00139927 0.00348076 -0.00883705 -0.022713 -0.0124557 -0.00764248 0.00502201 -0.0125663 0.00189355 0.0144749 -0.0257909 -0.0249637 -0.00619466 0.0214696 -0.0124697
internal_weight=0 547080 608682 120653 426427 123513 402151 302914 206531 347551 54600 68121 48170 75343 37794 265120 70150 46120 264482 44553 46498 30060 29334 22001 46033 263891
internal_count=1155762 547080 608682 120653 426427 123513 402151 302914 206531 347551 54600 68121 48170 75343 37794 265120 70150 46120 264482 44553 46498 30060 29334 22001 46033 263891
cat_boundaries=0 24
cat_threshold=0 8388608 131072 0 64 0 131072 0 0 0 16787458 256 35651584 0 128 536871936 536870912 2415919104 131072 268435456 0 0 32768 2097408
is_linear=0
shrinkage=0.035336


Tree=15
num_leaves=27
num_cat=2
split_feature=0 0 0 0 0 1 0 1 0 1 1 1 0 1 1 2 2 2 4 2 1 1 2 4 1 1
split_gain=236404 61399.4 41064 9127.01 5849.13 2888.97 2798.18 2668.02 2195.97 2189.61 1866.97 1404.69 1268.11 1082.94 955.761 812.724 788.084 725.736 719.394 711.233 694.81 674.585 660.759 650.282 622.145 579.206
threshold=3.5285947712418304 2.4017543859649124 4.386752136752138 1.7791327913279134 3.2158385093167707 4.8208556149732624 4.7071078431372557 3.9555335968379448 3.9607692307692313 2.4298029556650249 3.6116780045351478 4.7801932367149762 2.6715686274509807 3.0060240963855427 1.017241379310345 3.3208572301334791 3.7489984061424244 3.614101925088709 0 3.3983167328394726 4.7801932367149762 3.5469208211143699 3.476615802554766 1 2.0059523809523814 4.6381818181818195
decision_type=2 2 2 2 2 2 2 2 2 2 2 2 2 2 2 2 2 2 9 2 2 2 2 9 2 2
left_child=1 3 5 -1 9 8 25 13 10 14 16 12 19 24 -3 -15 -2 -14 21 -11 -9 -19 -12 -16 -6 -4
right_child=2 4 6 -5 7 -7 -8 20 -10 11 22 -13 17 15 23 -17 -18 18 -20 -21 -22 -23 -24 -25 -26 -27
leaf_value=-0.052733751324146934 -0.0058616018406694448 -0.061583260601922381 0.018291341457496318 -0.032123912270567871 -0.033472821173073375 0.029374652806575481 0.029940734089627455 0.0064320494837569612 0.0093387757178901541 -0.026583015250974687 0.001872816013442145 0.0328504830371565 -0.012918016634690903 -0.010219646446774382 -0.030235814187292303 -0.00094998251726709346 0.0058216370348028986 -0.0074444547827973067 -0.010846946539404871 -0.014928129827136389 0.031702672586795738 0.0057404698612394944 0.011956811695730306 -0.014268706999363411 -0.010589674401858365 0.028857046040584252
leaf_weight=38586 28314 897 38210 88075 1580 8106 164659 19036 316439 10770 12564 864 171612 15980 8097 45264 9671 17777 74055 16651 1463 6660 22914 5362 24351 7805
leaf_count=38586 28314 897 38210 88075 1580 8106 164659 19036 316439 10770 12564 864 171612 15980 8097 45264 9671 17777 74055 16651 1463 6660 22914 5362 24351 7805
internal_value=0 -0.0168354 0.0151726 -0.0384026 -0.0103377 0.00849514 0.0277878 -0.00323433 0.00806103 -0.0127833 0.0025571 -0.0121347 -0.0122654 -0.00593165 -0.0262634 -0.00336878 -0.00288687 -0.0115303 -0.00911229 -0.0195061 0.00823611 -0.00384922 0.00838592 -0.0239083 -0.0119844 0.0200837
internal_weight=0 547080 608682 126661 420419 398008 210674 107674 389902 312745 73463 298389 297525 87175 14356 61244 37985 270104 98492 27421 20499 24437 35478 13459 25931 46015
internal_count=1155762 547080 608682 126661 420419 398008 210674 107674 389902 312745 73463 298389 297525 87175 14356 61244 37985 270104 98492 27421 20499 24437 35478 13459 25931 46015
cat_boundaries=0 30 60
cat_threshold=8388608 8388640 4194304 0 0 0 0 0 570425344 0 16777218 32768 2105344 0 0 536871938 0 268435456 512 0 0 4 32768 2097408 8 2097152 0 33587200 33554432 4096 0 8388608 4194304 0 64 0 131072 0 0 0 16785442 33024 35651584 0 1048576 536871936 4 268472320 268567040 268435456 0 0 1081344 2097408 8 8192 0 0 33554432 134217728
is_linear=0
shrinkage=0.035336


Tree=16
num_leaves=27
num_cat=3
split_feature=0 0 0 0 0 1 0 1 1 4 1 1 0 0 1 0 1 1 1 4 0 3 4 1 1 1
split_gain=220001 50149.6 45381.7 7764 5169.96 3628.03 2655.61 2434.55 2432.15 2141.66 1987.27 1625.89 1320.32 1210.34 938.27 865.293 836.741 825.381 821.378 1293.19 624.255 572.794 538.3 516.402 510.613 462.755
threshold=3.4459064327485387 2.2052631578947373 4.3651515151515161 1.3405797101449277 3.7709790209790213 2.8589511754068719 4.651115618661259 3.8903903903903907 3.9692234848484853 0 4.9660633484162906 1.5051020408163267 2.9905660377358494 3.0094339622641515 3.0060240963855427 2.5051020408163267 4.4924242424242431 4.6602564102564115 3.0060240963855427 1 4.1026315789473697 3.6097876095040022 2 4.8480769230769232 2.0059523809523814 3.3015151515151522
decision_type=2 2 2 2 2 2 2 2 2 9 2 2 2 2 2 2 2 2 2 9 2 2 9 2 2 2
left_child=1 3 4 -1 7 11 23 14 13 16 18 -3 -13 15 24 -7 21 -9 19 -6 -20 -10 -14 -4 -2 -15
right_child=2 5 6 -5 10 8 -8 17 9 -11 -12 12 22 25 -16 -17 -18 -19 20 -21 -22 -23 -24 -25 -26 -27
leaf_value=-0.052170255543856063 -0.031972232144653938 -0.054516834884829293 0.017137888708363091 -0.0321937460757281 -0.0094888872683614057 -0.020347290129358247 0.028691364642469918 0.0073063652791052038 0.010379927516245129 -0.0097976155267110246 0.028589109861441905 -0.026110870629751804 -0.020405188717787827 -0.0098742574372911781 -0.00051026985208487948 -0.011684337432519901 0.025021458112076116 0.027746999190438566 0.0087820487555498195 0.0074067525642456406 0.014378849186168217 -0.0030134658621466305 -0.011827377340975028 0.029708868948698581 -0.0078081587873964371 -0.0030742971638951962
leaf_weight=33994 1155 1604 35455 85147 7550 15483 171274 25764 8145 19647 6415 19130 14149 23235 61942 205672 2722 2728 279037 22463 27325 7809 26239 4613 20020 27045
leaf_count=33994 1155 1604 35455 85147 7550 15483 171274 25764 8145 19647 6415 19130 14149 23235 61942 205672 2722 2728 279037 22463 27325 7809 26239 4613 20020 27045
internal_value=0 -0.0179488 0.0132475 -0.0378937 0.00695562 -0.0115417 0.0267754 0.000350036 -0.00998923 -0.00165596 0.00910631 -0.0194096 -0.0184632 -0.0111657 -0.00270549 -0.0122909 0.00691022 0.00926383 0.00873472 0.0031556 0.00928126 0.0038239 -0.0148406 0.0185854 -0.0091267 -0.00621679
internal_weight=0 490021 665741 119141 454399 370880 211342 111609 309758 38323 342790 61122 59518 271435 83117 221155 18676 28492 336375 30013 306362 15954 40388 40068 21175 50280
internal_count=1155762 490021 665741 119141 454399 370880 211342 111609 309758 38323 342790 61122 59518 271435 83117 221155 18676 28492 336375 30013 306362 15954 40388 40068 21175 50280
cat_boundaries=0 30 60 90
cat_threshold=0 0 16777216 0 64 0 131072 0 0 0 285222946 256 35667968 0 16512 536871936 536870912 2415919104 268567040 4 0 256 32768 2097152 1032 0 0 0 0 134217728 0 8388608 16777216 0 0 0 0 0 0 0 285222914 256 2097152 0 0 1024 0 268435456 537001984 4 0 0 32768 69206016 0 0 0 0 0 134217728 0 0 0 0 0 0 0 0 0 0 16785442 256 35651584 0 0 536871936 0 268435456 268566528 268435456 0 0 1081344 2097152 0 8192 0 0 0 134217728
is_linear=0
shrinkage=0.035336


Tree=17
num_leaves=27
num_cat=2
split_feature=0 0 0 0 0 1 1 0 0 0 1 1 1 1 1 1 1 1 4 1 7 1 1 4 3 1
split_gain=204857 53199.7 35532.8 7367.55 5330.34 2983.85 2586.63 2450.46 2251.35 2112.33 1275.43 1156.37 1033.3 981.279 885.442 880.013 723.744 665.404 637.371 566.389 513.071 494.229 467.623 443.797 425.993 417.133
threshold=3.5285947712418304 2.2565789473684217 4.386752136752138 1.0151515151515154 3.0875959079283892 3.6264534883720931 4.232051282051283 4.9110671936758896 2.6715686274509807 3.9607692307692313 3.1440092165898621 4.9660633484162906 2.5030864197530867 3.9692234848484853 4.4924242424242431 4.8480769230769232 2.0059523809523814 2.5030864197530867 0 4.0842198581560289 10.297075852351723 1.017241379310345 2.0059523809523814 1 3.6097876095040022 3.9555335968379448
decision_type=2 2 2 2 2 2 2 2 2 2 2 2 2 2 2 2 2 2 9 2 2 2 2 9 2 2
left_child=1 3 6 -1 8 12 9 19 13 10 22 18 -6 17 24 16 23 -3 -8 -4 -14 -5 -2 -10 -7 -18
right_child=2 4 7 21 5 14 11 -9 15 -11 -12 -13 20 -15 -16 -17 25 -19 -20 -21 -22 -23 -24 -25 -26 -27
leaf_value=-0.050529329858893746 -0.039362345079877022 -0.031394582702981587 0.015541600791529747 -0.0594706986173867 -0.022666390448952144 0.0065266045632479527 0.017519027233594175 0.027989777028826393 -0.034205893296896009 0.0081679252540961689 0.003584462852781186 0.027814063837276713 -0.0097304589860355527 0.0017019587276885172 0.020905112131313533 0.030353266871332753 -0.01152493628573904 -0.019410785530441326 0.0090897019834951399 0.023070174669428834 -0.0039534209579221158 -0.030747149325241127 -0.0072241601587129979 -0.0098836763359576203 -0.0010763183429514987 -0.0068063919548893908
leaf_weight=33304 592 7285 26845 755 5228 17795 21068 160498 2738 276964 54995 7733 33710 2350 3622 635 233788 28159 24122 23331 44596 86594 12534 1465 19053 26003
leaf_count=33304 592 7285 26845 755 5228 17795 21068 160498 2738 276964 54995 7733 33710 2350 3622 635 233788 28159 24122 23331 44596 86594 12534 1465 19053 26003
internal_value=0 -0.0156719 0.014124 -0.0363876 -0.00981056 -0.00364081 0.00791245 0.0258588 -0.0123404 0.00679684 0.00122222 0.0151866 -0.00745609 -0.0204081 0.00423413 -0.0111881 -0.0112881 -0.0218742 0.0130256 0.0190424 -0.00644048 -0.0309956 -0.00867452 -0.0258351 0.0025952 -0.0110527
internal_weight=0 547080 608682 120653 426427 124004 398008 210674 302423 345085 68121 52923 83534 37794 40470 264629 263994 35444 45190 50176 78306 87349 13126 4203 36848 259791
internal_count=1155762 547080 608682 120653 426427 124004 398008 210674 302423 345085 68121 52923 83534 37794 40470 264629 263994 35444 45190 50176 78306 87349 13126 4203 36848 259791
cat_boundaries=0 24 53
cat_threshold=0 8388608 131072 0 64 0 131072 0 0 0 16787458 256 35651584 0 128 536871936 0 2415919104 131072 268435456 0 0 32768 2097408 0 9437184 0 0 64 0 131072 0 0 0 16787490 256 35659776 0 1048704 536871936 0 2415951872 268567040 268435456 0 0 32768 2097408 8 8192 0 0 33554432
is_linear=0
shrinkage=0.035336


Tree=18
num_leaves=27
num_cat=5
split_feature=0 0 0 0 0 0 1 1 1 4 1 0 1 1 4 2 2 1 4 5 2 1 2 4 2 0
split_gain=191158 41945 40718.1 6755.05 4867.73 3122.62 2912.41 2198.71 1963.19 1810.65 1547.18 1342.86 1255.08 1061.21 957.568 869.173 772.716 761.537 1257.12 744.651 734.978 689.517 555.814 560.216 507.328 759.903
threshold=3.3651515151515157 2.2052631578947373 4.3306010928961758 1.7791327913279134 3.7374686716791987 4.6396103896103904 2.6696969696969703 3.505555555555556 3.9692234848484853 0 4.9272486772486781 2.8765243902439028 1.017241379310345 4.4924242424242431 1 3.5541855410942698 3.7468273134686529 3.0060240963855427 2 3 3.5915774095212734 4.2152509652509655 3.3295869483456921 4 3.3208572301334791 3.0094339622641515
decision_type=2 2 2 2 2 2 2 2 2 9 2 2 2 2 9 2 2 2 9 9 2 2 2 9 2 2
left_child=1 3 4 -1 7 21 12 16 11 19 17 15 -3 20 -14 -8 -2 18 -6 -10 -9 -4 23 -19 -13 -26
right_child=2 6 5 -5 10 -7 8 13 9 -11 -12 24 14 -15 -16 -17 -18 22 -20 -21 -22 -23 -24 -25 25 -27
leaf_value=-0.047445125659057175 -0.0074979746250070766 -0.05699570908302791 0.013908773126301155 -0.029478630164928514 -0.010175470611885116 0.026704584694254262 -0.021705898038554931 -0.00081003388922723377 -0.0035721007234913614 -0.0098430775001113763 0.026645149248782005 -0.012581381265715234 -0.023718500185028725 0.02134701125008311 -0.012178851559282505 -0.010482530679890086 0.0012509803850864346 -1.2512724278231313e-05 0.0065327989926766633 0.011586869226327933 0.0078600438973317737 0.022420571682075785 0.0090199793381169173 0.0076182468885395965 -0.01009722707923537 -0.0039934446014235321
leaf_weight=38650 42969 1126 34349 80681 7425 171128 22081 25217 6407 18709 5522 69964 22686 4485 15003 14134 17836 18056 23062 10962 23664 18177 250790 35914 144674 30914
leaf_count=38650 42969 1126 34349 80681 7425 171128 22081 25217 6407 18709 5522 69964 22686 4485 15003 14134 17836 18056 23062 10962 23664 18177 250790 35914 144674 30914
internal_value=0 -0.0171632 0.0120462 -0.0352979 0.00597715 0.0243913 -0.0110957 -0.000337541 -0.00997981 -0.00221863 0.00809284 -0.0109735 -0.0202333 0.00489672 -0.0191346 -0.0173259 -0.00493153 0.00778722 0.00246213 0.00599591 0.00338716 0.0168545 0.0083199 0.00506663 -0.0100366 -0.00902264
internal_weight=0 475991 678594 119331 454940 223654 356660 114171 317845 36078 340769 281767 38815 53366 37689 36215 60805 335247 30487 17369 48881 52526 304760 53970 245552 175588
internal_count=1154585 475991 678594 119331 454940 223654 356660 114171 317845 36078 340769 281767 38815 53366 37689 36215 60805 335247 30487 17369 48881 52526 304760 53970 245552 175588
cat_boundaries=0 30 60 90 153 182
cat_threshold=0 8388608 17956864 0 0 0 131072 0 0 0 285220898 256 35651584 16777216 1065088 536871936 536871168 2415919104 268567040 268435456 0 0 32768 2097408 0 0 0 0 33554432 134217728 0 9437184 4194304 0 64 128 131072 0 0 0 16787490 256 35651584 1 1048576 536871936 4 268439552 268566528 268435456 0 0 1081344 2097408 8 8192 0 0 33554432 134217728 0 0 0 0 0 16 0 0 0 0 285212674 256 2113536 0 0 1024 0 268435456 512 0 0 0 32768 2097152 0 0 0 0 0 134217728 0 0 0 0 0 0 0 0 0 0 0 0 0 0 0 0 0 0 0 0 0 0 0 0 0 0 0 0 0 0 0 0 0 0 0 0 0 0 0 0 0 0 0 0 0 0 0 0 0 0 0 0 0 0 0 0 0 0 0 0 0 0 4079936 0 8388640 131072 32 64 0 131072 0 0 0 16777218 33554688 35651584 16384 1065088 1024 537034752 2415919104 268566528 268435456 0 0 4227072 536870912 1 8192 0 0 33554448
is_linear=0
shrinkage=0.035336


Tree=19
num_leaves=27
num_cat=5
split_feature=0 0 0 0 0 0 1 1 1 4 1 0 1 2 4 2 1 4 5 1 1 1 2 4 2 0
split_gain=177888 39032.9 37891.3 6296.55 4529.79 2909.44 2710.41 2068.37 1826.89 1685.02 1444.15 1249.63 1174.86 1037.96 851.404 808.826 697.007 1170.17 693.012 687.525 685.506 592.342 519.089 532.708 472.104 707.145
threshold=3.3651515151515157 2.2052631578947373 4.3306010928961758 1.0151515151515154 3.7374686716791987 4.6742424242424248 2.6696969696969703 3.8675438596491234 3.9692234848484853 0 4.7182539682539693 2.8765243902439028 1.5051020408163267 3.7468273134686529 1 3.5541855410942698 3.0060240963855427 2 3 4.2466216216216219 4.6035714285714286 3.168439716312057 3.3295869483456921 4 3.3208572301334791 3.0094339622641515
decision_type=2 2 2 2 2 2 2 2 2 9 2 2 2 2 9 2 2 9 9 2 2 2 2 9 2 2
left_child=1 3 4 -1 7 19 12 13 11 18 16 15 -3 21 -14 -8 17 -6 -10 -4 -9 -2 23 -18 -13 -26
right_child=2 6 5 -5 10 -7 8 20 9 -11 -12 24 14 -15 -16 -17 22 -19 -20 -21 -22 -23 -24 -25 25 -27
leaf_value=-0.047074518481676694 -0.010462571725805773 -0.049786012386119911 0.013994832245855376 -0.028991428354010571 -0.0097938396509254424 0.025944167081053682 -0.020938902927459615 0.0062082876025008563 -0.0034460764050216943 -0.0094954508259469713 0.023436865269263418 -0.012136806274705394 -0.022654721622564308 0.0029813742383266555 -0.011732058184595251 -0.010112123457904914 -0.00028308557569202409 0.0063101428434949765 0.011177813773576087 0.021979940575539619 0.025299913038329618 -0.0030740024884797295 0.0086582878017857218 0.0072552073834428535 -0.0097404316052623636 -0.0038523328460985202
leaf_weight=33385 20418 1538 38308 85946 7447 164577 22081 25771 6407 18709 7225 69964 22279 25118 14998 14134 17283 23040 10962 20769 2584 40280 249491 36283 144674 30914
leaf_count=33385 20418 1538 38308 85946 7447 164577 22081 25771 6407 18709 7225 69964 22279 25118 14998 14134 17283 23040 10962 20769 2584 40280 249491 36283 144674 30914
internal_value=0 -0.0165568 0.0116205 -0.0340506 0.00576595 0.0235294 -0.0107037 -0.000325609 -0.00962717 -0.00214025 0.00780687 -0.0105858 -0.0195187 -0.00305958 -0.0182696 -0.0167137 0.00746828 0.00237508 0.00578419 0.0168022 0.00794845 -0.00555954 0.00798062 0.00482418 -0.00968199 -0.00870381
internal_weight=0 475991 678594 119331 454940 223654 356660 114171 317845 36078 340769 281767 38815 85816 37277 36215 333544 30487 17369 59077 28355 60698 303057 53566 245552 175588
internal_count=1154585 475991 678594 119331 454940 223654 356660 114171 317845 36078 340769 281767 38815 85816 37277 36215 333544 30487 17369 59077 28355 60698 303057 53566 245552 175588
cat_boundaries=0 30 59 89 152 181
cat_threshold=0 8388608 17956864 0 0 0 131072 0 0 0 285220898 256 35651584 16777216 1065088 536871936 536871168 2415919104 268567040 268435456 0 0 32768 2097408 0 0 0 0 33554432 134217728 0 9437184 20971520 0 64 128 131072 0 0 0 16787490 256 35651584 1 1048576 536871936 4 268439552 268566528 268435456 0 0 32768 2097408 8 40960 0 0 33554432 0 0 0 0 0 16 0 0 0 0 285220866 256 2113536 0 0 1024 0 268435456 0 0 0 0 32768 2097152 0 0 0 0 0 134217728 0 0 0 0 0 0 0 0 0 0 0 0 0 0 0 0 0 0 0 0 0 0 0 0 0 0 0 0 0 0 0 0 0 0 0 0 0 0 0 0 0 0 0 0 0 0 0 0 0 0 0 0 0 0 0 0 0 0 0 0 0 0 4079936 0 32 131072 32 64 0 131072 0 0 0 16777218 33554688 35651584 16384 1065088 1024 537034756 2415919104 268566528 268435456 0 0 4227072 536870912 1 8192 0 0 33554448
is_linear=0
shrinkage=0.035336


Tree=20
num_leaves=27
num_cat=2
split_feature=0 0 0 0 0 0 0 1 1 1 1 1 2 0 2 2 1 1 1 5 2 1 1 5 2 1
split_gain=165539 36323 35261.1 5892.08 4208.8 2731.41 2537.32 1934.94 1349.42 1341.09 1328.58 928.633 816.233 918.622 764.404 697.828 683.485 657.698 656.204 758.74 637.338 607.091 542.956 522.775 489.978 446.502
threshold=3.3651515151515157 2.2052631578947373 4.3021739130434788 1.7791327913279134 3.7374686716791987 4.6396103896103904 2.8765243902439028 3.505555555555556 4.9660633484162906 3.4803846153846156 4.6602564102564115 4.4924242424242431 3.7212041931100299 3.0094339622641515 3.1960337088667075 3.3208572301334791 2.0059523809523814 2.0059523809523814 3.0060240963855427 0 3.7468273134686529 4.3858560794044674 1.5051020408163267 1 3.5143700650879985 3.0533428165007117
decision_type=2 2 2 2 2 2 2 2 2 2 2 2 2 2 2 2 2 2 2 9 2 2 2 9 2 2
left_child=1 3 4 -1 7 21 9 16 18 14 12 15 22 -14 -3 -9 -2 -16 19 -6 -18 -4 -8 -11 -20 -15
right_child=2 6 5 -5 8 -7 10 11 -10 23 -12 -13 13 25 17 -17 20 -19 24 -21 -22 -23 -24 -25 -26 -27
leaf_value=-0.044192234099176893 -0.030120311304172642 -0.028685215189980837 0.013430128664692531 -0.027412535006961083 0.004558674609170664 0.024855454321992394 -0.047510989359891752 -0.0047280965660115564 0.024890203582090455 -0.011222972075826619 0.024533602420161883 0.019984681028970767 -0.0080415993625406884 -0.0074884821941295938 -0.033325572674138611 0.0054369538414213089 -0.0064350586476454724 -0.015975041392297003 0.0058283383340045729 -0.011432036698701404 0.0015873672615840354 0.022098819226134547 -0.010237296436526775 0.0060655946839554059 0.0087891020419861993 0.005530282411698997
leaf_weight=38650 1285 10188 39210 80681 26173 171128 489 10833 5498 7411 1461 4485 61723 4727 3008 38048 41997 29389 108368 4306 17523 13587 224361 3089 196153 10814
leaf_count=38650 1285 10188 39210 80681 26173 171128 489 10833 5498 7411 1461 4485 61723 4727 3008 38048 41997 29389 108368 4306 17523 13587 224361 3089 196153 10814
internal_value=0 -0.0159718 0.0112099 -0.0328474 0.00555707 0.0226877 -0.0103255 -0.000314098 0.00752573 -0.0174529 -0.00907913 0.00459617 -0.00924171 -0.00610822 -0.0202419 0.00318404 -0.00462374 -0.0175863 0.00724072 0.00229704 -0.00407311 0.0156611 -0.0103184 -0.00614114 0.0077355 0.00157002
internal_weight=0 475991 678594 119331 454669 223925 356660 114171 340498 53085 303575 53366 302114 77264 42585 48881 60805 32397 335000 30479 59520 52797 224850 10500 304521 15541
internal_count=1154585 475991 678594 119331 454669 223925 356660 114171 340498 53085 303575 53366 302114 77264 42585 48881 60805 32397 335000 30479 59520 52797 224850 10500 304521 15541
cat_boundaries=0 63 126
cat_threshold=0 0 0 0 0 0 0 0 0 0 0 0 0 0 0 0 0 0 0 0 0 0 0 0 0 0 0 0 0 0 0 0 0 0 0 0 0 0 0 0 0 0 0 0 0 0 0 0 0 0 0 0 0 0 0 0 0 0 0 0 0 2155937792 4186091 0 0 0 0 0 0 0 0 0 0 0 0 0 0 0 0 0 0 0 0 0 0 0 0 0 0 0 0 0 0 0 0 0 0 0 0 0 0 0 0 0 0 0 0 0 0 0 0 0 0 0 0 0 0 0 0 0 0 0 0 0 545259520 4181856
is_linear=0
shrinkage=0.035336


Tree=21
num_leaves=27
num_cat=3
split_feature=0 0 0 0 0 1 1 0 1 1 2 2 0 1 0 1 1 4 1 4 3 2 2 1 4 1
split_gain=154047 33804 32820 5984.08 4245.8 2449.37 1974.42 1894.74 1501.84 1298.96 1122.57 1087.85 1028.43 1000.6 932.915 852.8 787.972 744.602 471.403 463.747 458.75 453.542 452.422 446.96 875.55 409.344
threshold=3.3651515151515157 2.4017543859649124 4.3651515151515161 1.7791327913279134 3.8345771144278613 3.8675438596491234 2.7533783783783785 4.9110671936758896 4.4924242424242431 4.58477011494253 3.5967420552682303 3.3110935158255366 3.0094339622641515 1.017241379310345 2.8765243902439028 3.0060240963855427 4.4924242424242431 0 4.9925373134328366 1 3.3264884466183173 3.2987476363702677 3.8142661009605887 3.0060240963855427 2 3.8903903903903907
decision_type=2 2 2 2 2 2 2 2 2 2 2 2 2 2 2 2 2 9 2 9 2 2 2 2 9 2
left_child=1 3 4 -1 5 11 13 18 10 23 14 -2 19 -3 -8 20 -7 21 -4 25 -13 -15 -17 24 -6 -12
right_child=2 6 7 -5 9 16 8 -9 -10 -11 12 15 -14 17 -16 22 -18 -19 -20 -21 -22 -23 -24 -25 -26 -27
leaf_value=-0.04263066268734679 -0.0092310155425513636 -0.051852543720591504 0.015148356690745973 -0.025952784570422979 -0.0094028072016665055 0.0059396900990392647 -0.017775354987775237 0.02426187197928216 0.014578622904559246 0.018972674326272868 -0.0052438425331150012 -0.0012496019030296798 0.00094666837778004023 -0.028173657078589105 -0.0097935326119666811 2.8921360062178159e-05 0.020020541576862051 -0.010653605270299694 0.025460660466760179 -0.0091717206649259957 -0.011788201761060803 -0.01715559442891566 0.007499284300299322 0.007735587572941063 0.0061696326661953562 0.0086603527469174442
leaf_weight=38650 22946 989 44504 88102 5612 30168 20536 160307 3415 12414 18952 10097 20496 6310 166926 44100 5940 19035 6324 71579 10546 17929 13139 289738 22759 3072
leaf_count=38650 22946 989 44504 88102 5612 30168 20536 160307 3415 12414 18952 10097 20496 6310 166926 44100 5940 19035 6324 71579 10546 17929 13139 289738 22759 3072
internal_value=0 -0.0154074 0.0108138 -0.0310384 0.00559112 0.000359074 -0.00973429 0.0223769 -0.00872204 0.00775874 -0.00898594 -0.00246899 -0.00622233 -0.0167085 -0.010668 -0.000476637 0.00825632 -0.015905 0.0164316 -0.00779217 -0.00663386 -0.020016 0.00174384 0.0073211 0.00308789 -0.0033026
internal_weight=0 475991 678594 126752 467459 136936 349239 211135 304976 330523 301561 100828 114099 44263 187462 77882 36108 43274 50828 93603 20643 24239 57239 318109 28371 22024
internal_count=1154585 475991 678594 126752 467459 136936 349239 211135 304976 330523 301561 100828 114099 44263 187462 77882 36108 43274 50828 93603 20643 24239 57239 318109 28371 22024
cat_boundaries=0 30 59 89
cat_threshold=0 8388608 20971520 0 64 134217728 131072 0 0 0 16787458 256 35651584 0 1048704 536871936 0 268472320 131072 268435456 0 0 1081344 2097152 8 566272 0 0 33554432 134217728 8388608 8388640 131072 0 8 0 256 0 704643072 0 16785410 32776 2105344 0 0 536871936 0 268435456 16777984 268435456 0 0 32768 2097408 8 0 0 33554432 33554432 0 0 0 0 0 0 0 0 0 0 285212674 256 2097152 0 0 1024 0 268435456 512 0 0 0 32768 2097152 0 0 0 0 0 134217728
is_linear=0
shrinkage=0.035336


Tree=22
num_leaves=27
num_cat=5
split_feature=0 0 0 0 0 0 2 0 0 2 2 4 0 4 2 2 2 2 4 2 0 4 2 2 4 0
split_gain=143472 37605.6 24702.6 6774.76 3067.34 1542.77 1285.1 1522.81 1180.86 1090.18 900.926 798.452 709.017 553.672 537.123 533.642 446.922 405.098 360.015 296.474 291.135 278.878 269.292 258.534 241.09 234.494
threshold=3.5395010395010398 2.5051020408163267 4.4913793103448283 1.7791327913279134 3.2752525252525255 4.9478922716627647 3.476615802554766 3.9607692307692313 4.0540935672514626 3.7489984061424244 3.4824738479140254 0 2.0052083333333335 1 3.1458323608355703 3.4515885604064933 2.9654110110502048 3.1032580879525837 2 3.7489984061424244 1.0151515151515154 3 3.7489984061424244 4.1600897456987367 4 3.8775000000000004
decision_type=2 2 2 2 2 2 2 2 2 2 2 9 2 9 2 2 2 2 9 2 2 9 2 2 9 2
left_child=1 3 6 20 10 23 7 16 19 14 11 17 -5 22 -6 -14 -2 -3 -9 25 -1 -11 -12 -4 -21 -8
right_child=2 4 5 12 9 -7 8 18 -10 21 13 -13 15 -15 -16 -17 -18 -19 -20 24 -22 -23 -24 -25 -26 -27
leaf_value=-0.042343136987361411 -0.015311435160739604 -0.020444509327634808 0.015320736657850598 -0.025605803012065408 -0.011509389148045036 0.023405808659196031 0.0030031228264355797 0.00027918511464640662 0.015252278632504364 -0.00035747914632916131 -0.0067274770837120988 -0.0096023617385379029 -0.024114277942197917 -0.0086710699979906693 -0.0030880887466722732 -0.014464252231327962 -0.0018574456140333848 -0.013005787469680247 0.0066171690882115821 0.01156120969937784 -0.033393399352886231 0.0065913952858423887 -0.0010476475276829037 0.02546983318644442 0.0077359260140419175 0.0068665289430971084
leaf_weight=33385 3542 13586 42668 79253 11389 160255 24874 12846 25987 12560 21283 100367 13830 120631 55772 14839 23796 27978 87498 25834 5265 16931 20432 3385 103466 92933
leaf_count=33385 3542 13586 42668 79253 11389 160255 24874 12846 25987 12560 21283 100367 13830 120631 55772 14839 23796 27978 87498 25834 5265 16931 20432 3385 103466 92933
internal_value=0 -0.0131129 0.0118329 -0.0284294 -0.00751344 0.0217676 0.00671871 0.00379226 0.00808692 -0.0020294 -0.00925539 -0.0113119 -0.0238829 -0.00745745 -0.00451627 -0.0191198 -0.00360089 -0.0154338 0.00580653 0.00733334 -0.0411243 0.00363383 -0.00394472 0.0160669 0.00850177 0.00605086
internal_weight=0 547501 607084 146572 400929 206308 400776 127682 273094 96652 304277 141931 107922 162346 67161 28669 27338 41564 100344 247107 38650 29491 41715 46053 129300 117807
internal_count=1154585 547501 607084 146572 400929 206308 400776 127682 273094 96652 304277 141931 107922 162346 67161 28669 27338 41564 100344 247107 38650 29491 41715 46053 129300 117807
cat_boundaries=0 29 59 85 114 137
cat_threshold=0 131104 4325376 32 64 128 131072 0 33554432 0 8194 33554688 35651584 0 1048704 536871936 536903680 2415951872 268566528 268435456 0 0 4227072 0 0 9216 0 0 16 8388608 8388640 4194304 0 8 0 0 0 570425344 0 16777218 8 2097280 0 0 1024 2048 268435456 512 268435456 0 4 1081600 538972416 8 524288 33554432 33554432 33554432 6144 65536 32 16916480 32 0 128 131072 0 33554432 0 0 33554432 33554432 0 1065088 536871936 537034756 2415951872 805306368 268435456 0 0 4718592 0 1024 13312 0 131072 0 32 1342177280 16 131076 0 0 1 268437536 33554688 0 0 1050624 2097152 536903684 2684354560 272826368 4 0 0 0 0 67108865 32768 0 0 33554448 0 8388640 4325376 0 192 0 0 0 0 0 2 0 35651584 0 128 536871936 0 0 0 0 0 4 32768
is_linear=0
shrinkage=0.035336


Tree=23
num_leaves=27
num_cat=0
split_feature=2 3 3 2 3 2 3 2 3 3 2 2 3 3 2 3 2 3 2 3 3 3 3 2 2 3
split_gain=23878.6 13705.5 8348.05 4579.28 2897.48 2302.49 1940.23 1785.36 1494.92 1156.89 1155.71 927.044 749.922 608.752 552.9 507.726 422.217 419.564 410.771 386.614 369.405 327.287 271.41 235.802 219.059 197.257
threshold=3.5967420552682303 3.6429899097185348 3.6251338329764455 3.1960337088667075 4.1254370629370642 3.9157261999822555 3.1781099218013424 3.1841451153491471 4.0319574468085113 3.243944346659962 2.8101175328435937 3.9026932956736462 3.1655050995628948 4.5008896797153035 4.3021425507879583 2.7274575018477463 3.1841451153491471 3.1911437908496736 2.8101175328435937 2.7834248143473546 3.8637430644472901 3.4058397271952265 4.3752323420074353 2.3184507042253526 3.7642259894490748 3.1362464116894402
decision_type=2 2 2 2 2 2 2 2 2 2 2 2 2 2 2 2 2 2 2 2 2 2 2 2 2 2
left_child=1 3 5 10 7 9 15 18 11 19 23 -4 -12 16 17 -5 -6 -7 -3 -2 -9 -8 -10 -1 -11 -25
right_child=2 4 8 6 13 14 21 20 22 24 12 -13 -14 -15 -16 -17 -18 -19 -20 -21 -22 -23 -24 25 -26 -27
leaf_value=-0.031442412112458885 -0.010216163285715136 -0.013418002377206324 0.0060850054852662977 -0.017340541902711681 0.00077866097838352885 0.00095725413489395933 -0.0061667605250537586 -0.00012349035580580151 0.012800056846524698 8.9726979149467003e-06 -0.017813545383877572 0.011422889402278239 -0.010923702669339383 0.015222111421563576 0.012632996942741889 -0.0098330190432957439 0.0084796918386374955 0.0063317962640661923 -0.0049136741483236891 -0.0032536216278572722 0.0035635223096873473 -0.0030705045178952279 0.017446903808670273 -0.025238378250190704 0.003077779086733329 -0.018079048894285622
leaf_weight=2959 11836 8700 102971 13585 11891 25980 76452 77862 60951 72674 30009 67108 57598 12819 12609 65472 35238 60095 38397 62807 60132 96380 21154 7702 48383 12821
leaf_count=2959 11836 8700 102971 13585 11891 25980 76452 77862 60951 72674 30009 67108 57598 12819 12609 65472 35238 60095 38397 62807 60132 96380 21154 7702 48383 12821
internal_value=0 -0.00481454 0.00536329 -0.00917353 0.00164243 0.00132133 -0.00653771 -0.00054432 0.0100816 -0.0008978 -0.01515 0.00819122 -0.0132839 0.00839417 0.00572213 -0.0111232 0.00653681 0.00470968 -0.00648481 -0.00435776 0.00148311 -0.00444017 0.0139974 -0.0221121 0.00123554 -0.0207663
internal_weight=0 608017 546568 362978 245039 294384 251889 185091 252184 195700 111089 170079 87607 59948 98684 79057 47129 86075 47097 74643 137994 172832 82105 23482 121057 20523
internal_count=1154585 608017 546568 362978 245039 294384 251889 185091 252184 195700 111089 170079 87607 59948 98684 79057 47129 86075 47097 74643 137994 172832 82105 23482 121057 20523
is_linear=0
shrinkage=0.035336


Tree=24
num_leaves=27
num_cat=4
split_feature=0 0 0 0 1 1 4 0 0 1 1 2 1 0 1 1 1 4 0 2 4 1 4 2 0 2
split_gain=130392 34554.5 22087.3 6292.88 2914.53 2722.78 1763.72 1477.75 1404.08 1053.78 872.6 859.07 730.493 727.384 634.894 618.576 594.443 591.508 539.247 473.842 849.604 455.687 391.599 375.594 375.22 373.225
threshold=3.5571895424836604 2.5051020408163267 4.5582655826558272 1.5092592592592595 3.9555335968379448 4.202040816326531 0 3.253571428571429 3.9607692307692313 4.9660633484162906 2.0059523809523814 3.7489984061424244 4.6602564102564115 2.0052083333333335 3.2518656716417915 3.336879432624114 2.9682459677419359 1 4.253571428571429 3.3208572301334791 2 2.0059523809523814 3 3.1032580879525837 3.1570723684210531 4.1631749210650648
decision_type=2 2 2 2 2 2 9 2 2 2 2 2 2 2 2 2 2 9 2 2 9 2 9 2 2 2
left_child=1 3 5 -1 7 8 12 10 11 17 22 15 -6 -5 21 -2 -15 -7 -10 20 -12 -9 -3 -17 -8 -20
right_child=2 4 -4 13 6 9 24 14 18 -11 19 -13 -14 16 -16 23 -18 -19 25 -21 -22 -23 -24 -25 -26 -27
leaf_value=-0.03971391060087532 -0.0071637544356943413 -0.029185721519296725 0.021983418899544364 -0.024576676440680106 0.0050637343130183329 0.014830395173776082 -0.0087485323400504789 -0.027445643424709551 0.0063248184497076377 0.02331603567320548 -0.016575973605812734 0.0078697720905600184 0.024939804558657731 -0.023830019237120661 -0.0012364591328702797 -0.0079688979743458271 -0.013551139087810282 0.0074875993996182302 0.010037441452764705 -0.008227334109791918 -0.0088078041714150825 -0.0067478377500407504 -0.0080259912770327523 0.0030195620874474268 0.0025400720307427846 0.024710399586035773
leaf_weight=37038 15380 3990 173436 81122 24893 30960 17927 1382 265252 11520 26960 17250 2545 12435 45057 4525 16161 24723 32056 189642 50867 34171 1540 27406 4624 2322
leaf_count=37038 15380 3990 173436 81122 24893 30960 17927 1382 265252 11520 26960 17250 2545 12435 45057 4525 16161 24723 32056 189642 50867 34171 1540 27406 4624 2322
internal_value=0 -0.0124364 0.0113337 -0.0271198 -0.00709723 0.00705204 0.00088906 -0.00822626 0.0058461 0.0135873 -0.00946756 0.0011193 0.00690516 -0.0228682 -0.00402231 -0.00134187 -0.0180212 0.0115744 0.00686455 -0.00918025 -0.0115021 -0.00755268 -0.0233619 0.00146214 -0.00643071 0.0110288
internal_weight=0 550354 604830 146756 403598 431394 49989 353609 364191 67203 272999 64561 27438 109718 80610 47311 28596 55683 299630 267469 77827 35553 5530 31931 22551 34378
internal_count=1155184 550354 604830 146756 403598 431394 49989 353609 364191 67203 272999 64561 27438 109718 80610 47311 28596 55683 299630 267469 77827 35553 5530 31931 22551 34378
cat_boundaries=0 30 60 89 119
cat_threshold=0 8388608 0 0 268435520 0 131072 0 0 0 285220898 256 35651584 16777216 16512 536871936 256 2415923200 268567040 268435456 0 256 32768 2097152 67109888 0 1073741824 0 0 134217728 0 8388640 4325376 0 64 0 131072 0 0 0 16785442 256 35651584 0 1065088 536871936 536870916 2415919104 268567040 268435456 0 0 32768 69206272 0 524288 0 0 0 134217728 0 8388640 4325376 0 64 0 131072 0 33554432 0 8194 256 35651584 0 1048704 536871936 536903936 2415919104 268566528 268435456 0 68 4227072 536871168 0 8192 0 0 33554432 0 8388608 4194304 0 64 0 131072 0 0 0 16787458 256 35651584 0 1048704 536871936 536870912 2415951872 268567040 268435456 0 0 32768 2097408 8 40960 0 0 0 134217728
is_linear=0
shrinkage=0.035336


Tree=25
num_leaves=27
num_cat=5
split_feature=0 0 0 0 1 1 4 0 0 0 4 1 1 2 1 0 2 1 3 1 1 2 4 5 4 1
split_gain=121340 32155.4 20573.6 5860.55 2712.24 1851.95 1635.21 1375.2 1374.26 1147.53 904.01 813.236 792.011 735.841 675.326 644.925 616.528 553.169 500.113 476.38 452.257 437.796 788.943 399.302 390.152 370.261
threshold=3.5571895424836604 2.5051020408163267 4.4913793103448283 1.7791327913279134 3.9555335968379448 4.1132478632478637 0 3.253571428571429 4.9836065573770503 3.9607692307692313 1 2.1387329591018447 3.0060240963855427 3.5967420552682303 4.7801932367149762 2.0052083333333335 3.3208572301334791 2.9682459677419359 3.706951460575445 3.0060240963855427 4.58477011494253 3.3208572301334791 2 3 4 4.9778314310798955
decision_type=2 2 2 2 2 2 9 2 2 2 9 2 2 2 2 2 2 2 2 2 2 2 9 9 9 2
left_child=1 3 5 -1 7 9 14 11 25 12 20 24 -2 -14 18 -5 -9 -17 -6 -18 -7 22 -13 -19 -3 -4
right_child=2 4 8 15 6 10 -8 16 -10 -11 -12 21 13 -15 -16 17 19 23 -20 -21 -22 -23 -24 -25 -26 -27
leaf_value=-0.037963337708290135 -0.0081523932833592466 -0.027791570463449065 0.013408273588923068 -0.023573925815699188 0.0092889883821749217 0.012718008232345143 -0.0060734618547433035 -0.0092576160976384769 0.021548507938041774 0.0061631091689416983 0.0069994727904995335 -0.015762754391909124 -0.0013224468835173774 0.0070532002333906678 0.025794045370778958 -0.022987970785186298 -0.0068936846023589932 -0.016296813360683369 -0.00089564815353001235 -5.4486565923781883e-05 0.021216608230953653 -0.0079286885319151765 -0.0083638679402224334 -0.003480454350544419 -0.0076518764353432 0.022910637860918515
leaf_weight=38689 10206 4237 40172 79471 14677 26812 22966 20013 159989 267781 30364 28475 27937 24655 2141 12435 18159 12079 10205 42438 11043 189368 49206 4082 1713 5871
leaf_count=38689 10206 4237 40172 79471 14677 26812 22966 20013 159989 267781 30364 28475 27937 24655 2141 12435 18159 12079 10205 42438 11043 189368 49206 4082 1713 5871
internal_value=0 -0.011997 0.0109332 -0.0261615 -0.00684651 0.00624883 0.000857651 -0.00793564 0.0200002 0.00515491 0.0115497 -0.0091331 0.000855681 0.00260392 0.00674817 -0.0219362 -0.00388019 -0.0173845 0.00511167 -0.00210409 0.0151934 -0.00884517 -0.0110792 -0.0130723 -0.0220543 0.0146201
internal_weight=0 550354 604830 146756 403598 398798 49989 353609 206032 330579 68219 272999 62798 52592 27023 108067 80610 28596 24882 60597 37855 267049 77681 16161 5950 46043
internal_count=1155184 550354 604830 146756 403598 398798 49989 353609 206032 330579 68219 272999 62798 52592 27023 108067 80610 28596 24882 60597 37855 267049 77681 16161 5950 46043
cat_boundaries=0 30 60 89 152 182
cat_threshold=0 0 0 0 268435520 0 131072 0 0 0 285220898 256 35651584 16777216 16512 536871936 256 2415923200 268567040 268435456 0 256 32768 2097152 67109888 0 1073741824 0 33554432 134217728 0 8388608 131072 0 64 0 131072 0 0 0 16787458 256 35651584 16777216 1048704 536871936 536870912 2415919104 268567040 268435456 0 0 32768 2097408 0 0 0 0 0 134217728 0 8388640 4325376 0 64 0 131072 0 33554432 0 16785410 256 35651584 0 1048704 536871936 536903680 2415919104 268566528 268435456 0 4 4227072 536871168 1 8192 0 0 33554432 0 0 0 0 0 0 0 0 0 0 0 0 0 0 0 0 0 0 0 0 0 0 0 0 0 0 0 0 0 0 0 0 0 0 0 0 0 0 0 0 0 0 0 0 0 0 0 0 0 0 0 0 0 0 0 0 0 0 0 0 0 536870912 2088784 0 8388608 4194304 0 64 0 131072 0 0 0 16787490 256 35659776 0 1048704 536871936 536870912 2415951872 268567040 268435456 0 0 32768 2097408 0 40960 0 0 0 134217728
is_linear=0
shrinkage=0.035336


Tree=26
num_leaves=27
num_cat=5
split_feature=0 0 0 0 0 0 0 2 2 2 0 2 4 2 2 2 0 4 2 4 4 2 2 4 2 2
split_gain=112947 25052.1 23903.6 4153.7 2835.08 1994.54 1756.14 1045.91 835.157 725.89 777.517 499.929 691.105 469.163 447.417 370.906 351.38 307.248 300.587 457.577 296.633 279.712 248.411 231.86 216.003 190.362
threshold=3.3651515151515157 2.1483516483516487 4.253571428571429 1.0151515151515154 3.693376068376069 4.6030303030303044 2.7537878787878793 3.3704251869535491 3.4508090200735899 3.7212041931100299 3.0094339622641515 3.6897371639354746 0 3.8142661009605887 3.6893072617738651 3.1308262923569843 4.0053763440860228 1 2.9434821816601482 2 3 2.7627299848686211 3.8139585149566941 4 3.0912787905364492 4.1600897456987367
decision_type=2 2 2 2 2 2 2 2 2 2 2 2 9 2 2 2 2 9 2 9 9 2 2 9 2 2
left_child=1 3 4 -1 7 14 8 21 24 18 17 12 15 20 -4 -6 -13 -11 19 -8 -9 -2 -10 -15 -3 -16
right_child=2 6 5 -5 11 -7 9 13 22 10 -12 16 -14 23 25 -17 -18 -19 -20 -21 -22 -23 -24 -25 -26 -27
leaf_value=-0.037804219078642551 -0.017801739361717025 -0.024784037975933478 0.00937043620867631 -0.023105827370556959 -0.0056873895769134495 0.020536418244077325 -0.019221444184264153 -0.010020487753686663 -0.01268577374414466 -0.0026880256104509768 0.0023236982487480789 0.0072885235594671721 0.0062797327295706544 0.00051035193256309731 0.014712067717532131 0.0027531622766024479 0.014875570787514543 -0.0080128632107524002 -0.0081720880672596797 -0.0083089268221626673 0.00063258446777922405 -0.0051734692036949229 -0.0046713749748416959 0.0083614099663967441 -0.017394702637157387 0.023451345749614182
leaf_weight=33412 2395 7730 25664 85307 7576 171379 8046 3458 17602 19470 15937 142055 140411 6717 24880 45780 8056 44634 212007 12029 55345 25652 6659 15696 13726 3561
leaf_count=33412 2395 7730 25664 85307 7576 171379 8046 3458 17602 19470 15937 142055 140411 6717 24880 45780 8056 44634 212007 12029 55345 25652 6659 15696 13726 3561
internal_value=0 -0.0131767 0.00926761 -0.0272426 0.00458943 0.018669 -0.00851016 -0.000369007 -0.0149784 -0.00756272 -0.00466082 0.00616493 0.00497896 0.00166259 0.0127538 0.00155427 0.00769575 -0.00639735 -0.00856351 -0.0126968 4.3882e-06 -0.00625214 -0.0104863 0.00601277 -0.0200573 0.0158066
internal_weight=0 476559 678625 118719 453141 225484 357840 109263 45717 312123 80041 343878 193767 81216 54105 53356 150111 64104 232082 20075 58803 28047 24261 22413 21456 28441
internal_count=1155184 476559 678625 118719 453141 225484 357840 109263 45717 312123 80041 343878 193767 81216 54105 53356 150111 64104 232082 20075 58803 28047 24261 22413 21456 28441
cat_boundaries=0 30 59 88 118 148
cat_threshold=0 32 1094713344 32 0 0 131072 0 33554434 0 2 256 35651584 0 1065088 2098176 164096 2550169600 268435456 268435456 0 0 4194304 0 1 5120 33554432 0 0 134217728 0 8388640 4325376 0 64 134217728 0 32768 570425346 0 16779266 256 35651584 16777216 128 536871938 0 268435456 66048 131072 0 0 32768 0 8 8192 0 33554432 33554432 0 8388608 16908288 32 64 0 0 0 33554432 0 16777218 256 35651584 16777216 1048704 1024 536871168 2415919104 268566528 268435456 0 0 32768 2097408 1 8192 0 33554432 33554432 0 0 1078067200 32 268435456 0 131072 0 0 0 0 0 16384 33554432 128 2097152 0 32768 268435456 0 0 0 0 0 0 1024 0 0 0 134217728 0 131072 0 32 0 16 131076 0 0 1 4196352 256 0 33554432 0 0 536903680 2684354560 272629760 0 0 0 0 0 67108864 32768 0 0 33554432 134217728
is_linear=0
shrinkage=0.035336


Tree=27
num_leaves=27
num_cat=1
split_feature=1 1 1 2 2 1 1 1 2 1 1 2 2 1 2 1 2 2 2 2 2 1 2 1 2 4
split_gain=58219.6 13349.6 12157.4 5465.79 3655.61 2568.22 2371.7 1285.5 1266.36 1178.83 1173.17 709.678 658.204 665.54 623.716 535.97 488.156 448.047 446.007 435.712 378.374 306.81 255.496 221.804 204.799 199.24
threshold=3.5469208211143699 2.6020833333333337 4.2738636363636369 3.4508090200735899 3.5915774095212734 3.0060240963855427 1.5051020408163267 4.7459677419354849 3.8142661009605887 3.202040816326531 3.8762755102040818 3.1960337088667075 3.4508090200735899 2.0059523809523814 2.9434821816601482 4.0113636363636376 2.9434821816601482 3.4796124236300123 3.9098430360917145 3.9157261999822555 3.0594337368217244 2.9175170068027216 4.3021425507879583 3.2869249394673128 3.8233243356516833 0
decision_type=2 2 2 2 2 2 2 2 2 2 2 2 2 2 2 2 2 2 2 2 2 2 2 2 2 9
left_child=1 6 4 9 10 18 -1 17 23 14 11 -2 25 -14 -3 19 -11 -4 -5 -6 -12 -16 -10 -7 -15 -8
right_child=2 3 7 5 15 8 12 -9 22 16 20 -13 13 24 21 -17 -18 -19 -20 -21 -22 -23 -24 -25 -26 -27
leaf_value=-0.03657639105670743 -0.0058760554011292841 -0.018768696542360408 0.009566214103510504 -0.0079092723170768858 0.0060519995413231137 -0.0040745900201684098 -0.025987682225623466 0.019621376303243329 0.0034517899476615315 -0.013551188763077116 -0.0010989848040123145 0.0005870331602124074 -0.0217610523200104 -0.014263593170027927 -0.01478021729768253 0.012684580924572451 -0.0061658166752050249 0.014977278143141011 -0.0026978678948770757 0.0096492665185808971 0.0049967838925626326 -0.010223562805844605 0.011490062740446278 -0.00095903964415595207 -0.0073665379583563824 -0.020209703717334257
leaf_weight=10511 29604 18384 27725 92427 118634 45378 12123 72914 53330 13185 14916 74844 14347 18999 26503 26709 73380 61537 26357 65139 86080 60813 5442 76878 7504 21521
leaf_count=10511 29604 18384 27725 92427 118634 45378 12123 72914 53330 13185 14916 74844 14347 18999 26503 26709 73380 61537 26357 65139 86080 60813 5442 76878 7504 21521
internal_value=0 -0.00793169 0.00793392 -0.0056979 0.0047341 -0.00271556 -0.0208626 0.0161403 -6.63169e-05 -0.0103484 0.00138094 -0.00124476 -0.0186452 -0.0156302 -0.0128525 0.00800698 -0.0072908 0.0132967 -0.00675297 0.0073271 0.00409644 -0.0116067 0.00419623 -0.0021155 -0.0123111 -0.0223057
internal_weight=0 577082 578102 492077 415926 299812 85005 162176 181028 192265 205444 104448 74494 40850 105700 210482 86565 89262 118784 183773 100996 87316 58772 122256 26503 33644
internal_count=1155184 577082 578102 492077 415926 299812 85005 162176 181028 192265 205444 104448 74494 40850 105700 210482 86565 89262 118784 183773 100996 87316 58772 122256 26503 33644
cat_boundaries=0 26
cat_threshold=4 8388640 4333568 0 64 1048576 131072 0 33554432 0 2097154 1107853568 35651584 1048576 0 541066240 0 2415919104 131072 268435456 0 64 1081344 2097152 0 8192
is_linear=0
shrinkage=0.035336


Tree=28
num_leaves=27
num_cat=4
split_feature=1 1 1 2 2 1 1 1 2 2 2 1 2 1 1 1 2 2 4 2 4 4 2 2 4 1
split_gain=54178.1 12447.8 11313.4 4807.76 3406.02 2540.49 2111.18 1196.63 1139.18 1043.07 956.302 823.958 815.59 784.298 746.708 498.331 439.939 424.235 378.911 344.825 265.309 239.026 237.758 233.802 220.663 217.735
threshold=3.5469208211143699 2.6696969696969703 4.2738636363636369 3.4824738479140254 3.4465520236150229 1.7512376237623763 3.0060240963855427 4.7182539682539693 2.9434821816601482 3.8142661009605887 3.7489984061424244 3.202040816326531 3.4508090200735899 3.9344086021505382 2.0059523809523814 3.835271317829458 2.9434821816601482 3.5688675223360087 0 3.9098430360917145 1 2 4.3021425507879583 3.8142661009605887 3 1.017241379310345
decision_type=2 2 2 2 2 2 2 2 2 2 2 2 2 2 2 2 2 2 9 2 9 9 2 2 9 2
left_child=1 5 4 8 13 25 19 17 20 -8 15 21 24 16 -14 -6 -2 -4 -12 -5 -3 -10 -11 -16 -7 -1
right_child=2 3 7 6 10 12 9 -9 11 22 18 -13 14 -15 23 -17 -18 -19 -20 -21 -22 -23 -24 -25 -26 -27
leaf_value=-0.037462681580574031 -0.0092764850915846818 -0.019967719499817807 0.0099750451858828752 -0.0073165069055158051 0.0021560501149338477 -0.024972689070831226 -0.0017799382051108886 0.018912921934907963 -0.013984399808930136 0.0033298178258557316 0.010896038271540422 -0.0057008165346779521 -0.020867166216662961 0.0029797322305305501 -0.012883242957178111 0.006405755322027514 -0.0014753658552896325 0.014913741967274529 0.0072171235644187173 -0.0025118329971143753 -0.01308205154240321 -0.0096060720955278879 0.01108406018555004 -0.006545806772023861 -0.018931714156218724 -0.027883348376176086
leaf_weight=7729 10532 11425 37801 78424 58713 10625 110335 73289 20126 53330 59529 82473 13360 55211 25401 83405 63163 51086 85373 24477 18690 71121 5442 10190 29113 4821
leaf_count=7729 10532 11425 37801 78424 58713 10625 110335 73289 20126 53330 59529 82473 13360 55211 25401 83405 63163 51086 85373 24477 18690 71121 5442 10190 29113 4821
internal_value=0 -0.00765145 0.00765357 -0.00525764 0.00456682 -0.0189028 -0.00218288 0.01557 -0.00936071 0.000245471 0.00670978 -0.00826076 -0.0167969 -0.000204611 -0.0137433 0.00465013 -0.00259035 0.0128136 0.00872981 -0.00617369 -0.0157056 -0.0105745 0.00404795 -0.011069 -0.0205582 -0.0337837
internal_weight=0 577082 578102 475843 415926 101239 272008 162176 203835 169107 287020 173720 88689 128906 48951 142118 73695 88887 144902 102901 30115 91247 58772 35591 39738 12550
internal_count=1155184 577082 578102 475843 415926 101239 272008 162176 203835 169107 287020 173720 88689 128906 48951 142118 73695 88887 144902 102901 30115 91247 58772 35591 39738 12550
cat_boundaries=0 28 54 81 107
cat_threshold=0 32 1078067200 0 2 134217728 131072 0 570425344 65537 4194306 0 35651584 33554432 128 536871936 0 268468224 0 272629760 1048576 4 32768 0 9 9216 0 33554432 0 8388640 16908292 0 65 0 10485760 4 33554432 0 16777218 557312 128 1048576 0 4195328 536870912 2147483648 139264 0 0 320 4751360 2097152 1 8192 65540 0 4202496 32 192 1048704 393218 0 0 0 536944642 3221225504 0 2097152 16777216 536871936 0 268468224 256 268435456 2097152 0 0 0 32768 1024 1073774592 4 8388640 4333568 0 65 1048576 131072 0 33554432 0 2 34078976 33554432 1048576 0 541066240 0 2415919104 139264 268435456 0 64 1605632 2097152 0 40960
is_linear=0
shrinkage=0.035336


Tree=29
num_leaves=27
num_cat=2
split_feature=1 1 1 2 2 1 1 1 1 2 2 2 1 1 2 2 1 2 1 4 2 2 2 2 1 4
split_gain=50424.6 11465.2 10749.5 4932.21 3213.72 2245.67 1827.83 1357.24 1228.8 1114.14 1073.29 676.196 554.337 544.228 474.817 444.037 448.173 437.044 366.186 339.919 324.96 299.707 219.557 197.411 189.815 189.548
threshold=3.5303308823529416 2.5030864197530867 4.2466216216216219 3.4508090200735899 3.3764489160024707 3.0060240963855427 1.5051020408163267 4.6602564102564115 2.9682459677419359 3.7489984061424244 3.8142661009605887 2.9434821816601482 3.835271317829458 3.9344086021505382 3.6737869411866249 3.3173771275736561 2.0059523809523814 3.9098430360917145 3.3133928571428579 0 2.9434821816601482 2.9654110110502048 4.3021425507879583 4.3021425507879583 3.2869249394673128 1
decision_type=2 2 2 2 2 2 2 2 2 2 2 2 2 2 2 2 2 2 2 9 2 2 2 2 2 9
left_child=1 6 4 8 13 17 -1 14 21 12 24 25 -6 20 -4 -8 -17 -5 -13 -11 -2 -3 -12 -19 -7 -10
right_child=2 3 7 5 9 10 15 -9 11 19 22 18 -14 -15 -16 16 -18 23 -20 -21 -22 -23 -24 -25 -26 -27
leaf_value=-0.034049770254484857 -0.0089999651217558228 -0.020992629166192395 0.0092291437673152569 -0.00745678917314935 0.0017109906792751636 -0.0038444600523792113 -0.022549778682761909 0.017853331154749658 -0.017798629980581196 0.010250695697159718 0.0031366499631483593 -0.0089846107717533701 0.0057803620147513267 0.0018918352631504007 0.014331020394023848 -0.020490410258279804 -0.01324705592015814 -0.0034629515872383063 -0.0051413593052516337 0.0067458707238949442 -0.0022784950605028295 -0.013709492103573372 0.010661448690272203 0.0060830510504117042 -0.00094182660069497325 -0.011308059769156704
leaf_weight=10511 10989 8971 48388 96642 75001 45378 19803 84002 9500 59809 51967 76370 94431 38079 43057 17941 26331 24444 52075 82464 49184 33123 5340 3041 74034 14309
leaf_count=10511 10989 8971 48388 96642 75001 45378 19803 84002 9500 59809 51967 76370 94431 38079 43057 17941 26331 24444 52075 82464 49184 33123 5340 3041 74034 14309
internal_value=0 -0.00747569 0.00729099 -0.00553032 0.00415849 -0.00269585 -0.0203913 0.0146105 -0.00991799 0.00591501 -0.000137162 -0.0084405 0.00397905 -0.001414 0.0116315 -0.0181506 -0.0161826 -0.00633858 -0.00742651 0.00822048 -0.00350612 -0.0152619 0.00383796 -0.00240651 -0.00204492 -0.0139104
internal_weight=0 569780 585404 495194 409957 300846 74586 175447 194348 311705 176719 152254 169432 98252 91445 64075 44272 124127 128445 142273 60173 42094 57307 27485 119412 23809
internal_count=1155184 569780 585404 495194 409957 300846 74586 175447 194348 311705 176719 152254 169432 98252 91445 64075 44272 124127 128445 142273 60173 42094 57307 27485 119412 23809
cat_boundaries=0 28 54
cat_threshold=0 32 1078067200 0 2 134217728 131072 0 570425344 65537 4194306 0 35651584 33554432 16512 536871938 0 268468224 0 272629760 1048576 4 32768 0 9 1024 0 33554432 0 8388640 16908288 0 65 0 8388608 4 33554432 0 16777218 33056 128 18350080 0 1024 537001984 2415919104 139264 0 0 64 4751360 2097152 1 8192
is_linear=0
shrinkage=0.035336


Tree=30
num_leaves=27
num_cat=1
split_feature=0 0 0 0 0 1 1 0 1 0 2 1 1 0 1 1 2 1 2 1 2 1 2 4 1 1
split_gain=93388.3 25019.3 15978.9 4701.25 2082.19 1764.59 1475.86 979.985 752.243 673.346 672.108 670.752 596.954 590.838 542.37 498.074 474.147 457.261 382.752 313.645 311.531 303.531 316.319 294.19 291.869 288.946
threshold=3.5345238095238098 2.5051020408163267 4.5100000000000007 1.0151515151515154 3.0919661733615227 4.5735930735930745 3.336879432624114 3.9607692307692313 3.0060240963855427 4.253571428571429 3.3058365576146929 4.3190909090909102 4.8681159420289868 2.0052083333333335 1.017241379310345 2.0059523809523814 3.5967420552682303 3.9692234848484853 3.1960337088667075 2.0059523809523814 3.7468273134686529 1.5051020408163267 3.3208572301334791 0 1.017241379310345 4.0919661733615227
decision_type=2 2 2 2 2 2 2 2 2 2 2 2 2 2 2 2 2 2 2 2 2 2 2 9 2 2
left_child=1 3 5 -1 12 7 15 8 19 -9 -10 16 14 24 -3 -6 -8 21 -17 -2 -11 -15 -23 -7 -5 -12
right_child=2 4 -4 13 6 23 11 9 10 20 25 -13 -14 17 -16 18 -18 -19 -20 -21 -22 22 -24 -25 -26 -27
leaf_value=-0.034732440517667704 -0.031852855056083894 -0.042416740655611726 0.018596824457956365 -0.044261206908202629 -0.023927441611214597 0.018385507561619233 -0.0025509962305100145 0.0056009021549247688 -0.0038909327747726598 0.0076897820045840988 0.004102845320826231 0.013501683700506242 0.025390154159454538 -0.03991342504967 -0.0077310779309063774 -0.012371173081137105 0.0036438309984012391 0.0026607317006342277 -0.0044595261592280779 -0.0055295351808539086 0.01371530166003963 -0.020981027157255198 -0.012891422396554882 0.008469818332231158 -0.020940933328050318 0.012595624821650319
leaf_weight=33371 599 564 173671 676 1956 15639 33460 297448 13226 24733 42750 5213 678 667 275778 9167 28625 1674 45732 10016 18914 9376 16967 4992 83807 5666
leaf_count=33371 599 564 173671 676 1956 15639 33460 297448 13226 24733 42750 5213 678 667 275778 9167 28625 1674 45732 10016 18914 9376 16967 4992 83807 5666
internal_value=0 -0.0105809 0.00953875 -0.0230768 -0.00601638 0.00591387 -0.00221363 0.00541046 0.00167211 0.00620236 0.00316835 0.00132745 -0.00772064 -0.0196397 -0.00780191 -0.00640523 0.0003051 -0.0152569 -0.00578075 -0.00701594 0.0103011 -0.0163676 -0.015771 0.0159996 -0.0211277 0.0050969
internal_weight=0 547711 607654 146538 401173 433983 124153 413352 72257 341095 61642 67298 277020 113167 276342 56855 62085 28684 54899 10615 43647 27010 26343 20631 84483 48416
internal_count=1155365 547711 607654 146538 401173 433983 124153 413352 72257 341095 61642 67298 277020 113167 276342 56855 62085 28684 54899 10615 43647 27010 26343 20631 84483 48416
cat_boundaries=0 30
cat_threshold=0 8388608 131072 0 268435520 16 131072 0 0 0 285214754 256 35659776 0 1065088 536871936 536870912 2415919104 268567040 0 0 0 32768 2097408 67108864 0 0 0 33554432 134217728
is_linear=0
shrinkage=0.035336


Tree=31
num_leaves=27
num_cat=4
split_feature=0 0 0 0 0 0 1 1 1 0 1 1 2 1 0 1 4 2 1 1 1 5 5 4 2 1
split_gain=86927.6 19694.3 18387 3299.54 2155.6 1554.41 1457.26 1108.93 920.174 823.594 765.969 633.264 517.484 510.825 495.662 571.058 461.232 453.943 399.582 394.418 376.043 347.414 326 302.165 300.452 271.607
threshold=3.3651515151515157 2.0052083333333335 4.253571428571429 1.0151515151515154 3.6711711711711716 4.9836065573770503 2.4023809523809527 4.4924242424242431 3.9241552839683682 2.7013513513513518 4.9660633484162906 1.017241379310345 3.3983167328394726 2.0059523809523814 3.0094339622641515 3.3735465116279078 0 3.1817424242424246 4.0842198581560289 2.0059523809523814 4.7182539682539693 1 2 3 3.4824738479140254 1.017241379310345
decision_type=2 2 2 2 2 2 2 2 2 2 2 2 2 2 2 2 9 2 2 2 2 9 9 9 2 2
left_child=1 3 4 -1 8 18 11 9 17 12 13 -3 -8 -6 -11 -16 -13 -2 21 -19 -10 -4 -14 -9 -17 -5
right_child=2 6 5 25 10 -7 7 23 20 14 -12 16 22 -15 15 24 -18 19 -20 -21 -22 -23 -24 -25 -26 -27
leaf_value=-0.033505139717905266 -0.0087357051227595732 -0.042406001645517027 0.011197338380895039 -0.042697517023920557 -0.024163680823465036 0.018254057501711766 -0.017557921943769851 0.019751849948188589 0.0043686085711117893 -0.0072134522033148211 0.018453325114189779 -0.020148264706285224 -0.011442447001453195 0.0052427666978054925 -0.0068021769063334615 -0.0041032200916768773 -0.0074600162527907726 -0.022479486120246878 0.014892735526393057 -0.00075633063059037109 0.020403204025223165 0.0029601940346097172 -0.001401582115198881 -0.003326736006494818 0.003939170846128927 -0.020200965431822492
leaf_weight=33371 11141 1191 28164 676 739 159879 13998 2425 22860 251289 5516 10195 15071 338825 28657 9925 5574 1059 28833 71389 1985 8306 5534 1001 13955 83807
leaf_count=33371 11141 1191 28164 676 739 159879 13998 2425 22860 251289 5516 10195 15071 338825 28657 9925 5574 1059 28833 71389 1985 8306 5534 1001 13955 83807
internal_value=0 -0.0115647 0.00812368 -0.0240973 0.00402534 0.0163777 -0.00744828 -0.00694666 -0.000320547 -0.00714916 0.00539096 -0.0175587 -0.0123147 0.00517874 -0.00656083 -0.00343917 -0.0156813 -0.00209526 0.0117837 -0.001074 0.00565006 0.00932541 -0.00875228 0.013055 0.000596326 -0.0203811
internal_weight=0 476669 678696 117854 453514 225182 358815 341855 108434 338429 345080 16960 34603 339564 303826 52537 15769 83589 65303 72448 24845 36470 20605 3426 23880 84483
internal_count=1155365 476669 678696 117854 453514 225182 358815 341855 108434 338429 345080 16960 34603 339564 303826 52537 15769 83589 65303 72448 24845 36470 20605 3426 23880 84483
cat_boundaries=0 30 93 156 185
cat_threshold=0 8388640 4194304 0 64 0 0 0 0 0 285212674 33024 35651584 1 1048576 536871936 536870912 2415923200 268566528 268435456 0 0 1081344 2097408 8 9216 0 0 33554432 134217728 0 0 0 0 0 0 0 0 0 0 0 0 0 0 0 0 0 0 0 0 0 0 0 0 0 0 0 0 0 0 0 0 0 0 0 0 0 0 0 0 0 0 0 0 0 0 0 0 0 0 0 0 0 0 0 0 0 0 0 0 0 0 4185257 0 0 0 0 0 0 0 0 0 0 0 0 0 0 0 0 0 0 0 0 0 0 0 0 0 0 0 0 0 0 0 0 0 0 0 0 0 0 0 0 0 0 0 0 0 0 0 0 0 0 0 0 0 0 0 0 0 0 0 0 0 613416960 4185920 0 8388608 0 0 0 0 0 0 0 0 16787490 33024 35651584 0 1065088 536871936 536870912 2415919104 131584 268435456 0 0 32768 2097152 8 0 0 0 33554432
is_linear=0
shrinkage=0.035336


Tree=32
num_leaves=27
num_cat=12
split_feature=1 1 1 1 1 1 1 1 4 4 4 7 4 4 7 4 4 9 4 4 5 1 4 4 1 3
